digraph Tree {
node [shape=box, style="filled, rounded", color="black", fontname="helvetica"] ;
edge [fontname="helvetica"] ;
0 [label=<x<SUB>17</SUB> &le; 0.5<br/>gini = 0.466<br/>samples = 79991<br/>value = [50355, 29636]>, fillcolor="#f4cbae"] ;
1 [label=<x<SUB>18</SUB> &le; -0.055<br/>gini = 0.406<br/>samples = 70059<br/>value = [50200, 19859]>, fillcolor="#efb387"] ;
0 -> 1 [labeldistance=2.5, labelangle=45, headlabel="True"] ;
2 [label=<x<SUB>8</SUB> &le; 0.565<br/>gini = 0.26<br/>samples = 32210<br/>value = [27259, 4951]>, fillcolor="#ea985d"] ;
1 -> 2 ;
3 [label=<x<SUB>10</SUB> &le; -0.348<br/>gini = 0.062<br/>samples = 18721<br/>value = [18123, 598]>, fillcolor="#e68540"] ;
2 -> 3 ;
4 [label=<x<SUB>18</SUB> &le; -0.995<br/>gini = 0.154<br/>samples = 6016<br/>value = [5509, 507]>, fillcolor="#e78d4b"] ;
3 -> 4 ;
5 [label=<x<SUB>23</SUB> &le; 0.5<br/>gini = 0.235<br/>samples = 3175<br/>value = [2744, 431]>, fillcolor="#e99558"] ;
4 -> 5 ;
6 [label=<x<SUB>21</SUB> &le; -0.27<br/>gini = 0.262<br/>samples = 2777<br/>value = [2346, 431]>, fillcolor="#ea985d"] ;
5 -> 6 ;
7 [label=<x<SUB>12</SUB> &le; 0.5<br/>gini = 0.062<br/>samples = 341<br/>value = [330, 11]>, fillcolor="#e68540"] ;
6 -> 7 ;
8 [label=<x<SUB>1</SUB> &le; 0.318<br/>gini = 0.052<br/>samples = 339<br/>value = [330, 9]>, fillcolor="#e6843e"] ;
7 -> 8 ;
9 [label=<x<SUB>1</SUB> &le; -0.479<br/>gini = 0.017<br/>samples = 233<br/>value = [231, 2]>, fillcolor="#e5823b"] ;
8 -> 9 ;
10 [label=<x<SUB>15</SUB> &le; 1.167<br/>gini = 0.165<br/>samples = 11<br/>value = [10, 1]>, fillcolor="#e88e4d"] ;
9 -> 10 ;
11 [label=<gini = 0.0<br/>samples = 8<br/>value = [8, 0]>, fillcolor="#e58139"] ;
10 -> 11 ;
12 [label=<gini = 0.444<br/>samples = 3<br/>value = [2, 1]>, fillcolor="#f2c09c"] ;
10 -> 12 ;
13 [label=<x<SUB>8</SUB> &le; 0.118<br/>gini = 0.009<br/>samples = 222<br/>value = [221, 1]>, fillcolor="#e5823a"] ;
9 -> 13 ;
14 [label=<gini = 0.0<br/>samples = 207<br/>value = [207, 0]>, fillcolor="#e58139"] ;
13 -> 14 ;
15 [label=<x<SUB>1</SUB> &le; 0.063<br/>gini = 0.124<br/>samples = 15<br/>value = [14, 1]>, fillcolor="#e78a47"] ;
13 -> 15 ;
16 [label=<gini = 0.0<br/>samples = 12<br/>value = [12, 0]>, fillcolor="#e58139"] ;
15 -> 16 ;
17 [label=<x<SUB>16</SUB> &le; 0.5<br/>gini = 0.444<br/>samples = 3<br/>value = [2, 1]>, fillcolor="#f2c09c"] ;
15 -> 17 ;
18 [label=<gini = 0.0<br/>samples = 1<br/>value = [0, 1]>, fillcolor="#399de5"] ;
17 -> 18 ;
19 [label=<gini = 0.0<br/>samples = 2<br/>value = [2, 0]>, fillcolor="#e58139"] ;
17 -> 19 ;
20 [label=<x<SUB>1</SUB> &le; 0.339<br/>gini = 0.123<br/>samples = 106<br/>value = [99, 7]>, fillcolor="#e78a47"] ;
8 -> 20 ;
21 [label=<x<SUB>16</SUB> &le; 1.5<br/>gini = 0.5<br/>samples = 2<br/>value = [1, 1]>, fillcolor="#ffffff"] ;
20 -> 21 ;
22 [label=<gini = 0.0<br/>samples = 1<br/>value = [0, 1]>, fillcolor="#399de5"] ;
21 -> 22 ;
23 [label=<gini = 0.0<br/>samples = 1<br/>value = [1, 0]>, fillcolor="#e58139"] ;
21 -> 23 ;
24 [label=<x<SUB>22</SUB> &le; 0.064<br/>gini = 0.109<br/>samples = 104<br/>value = [98, 6]>, fillcolor="#e78945"] ;
20 -> 24 ;
25 [label=<x<SUB>22</SUB> &le; 0.036<br/>gini = 0.208<br/>samples = 51<br/>value = [45, 6]>, fillcolor="#e89253"] ;
24 -> 25 ;
26 [label=<x<SUB>1</SUB> &le; 1.57<br/>gini = 0.18<br/>samples = 50<br/>value = [45, 5]>, fillcolor="#e88f4f"] ;
25 -> 26 ;
27 [label=<x<SUB>8</SUB> &le; -0.285<br/>gini = 0.15<br/>samples = 49<br/>value = [45, 4]>, fillcolor="#e78c4b"] ;
26 -> 27 ;
28 [label=<x<SUB>3</SUB> &le; 0.75<br/>gini = 0.408<br/>samples = 14<br/>value = [10, 4]>, fillcolor="#efb388"] ;
27 -> 28 ;
29 [label=<x<SUB>4</SUB> &le; -0.5<br/>gini = 0.278<br/>samples = 12<br/>value = [10, 2]>, fillcolor="#ea9a61"] ;
28 -> 29 ;
30 [label=<gini = 0.0<br/>samples = 2<br/>value = [0, 2]>, fillcolor="#399de5"] ;
29 -> 30 ;
31 [label=<gini = 0.0<br/>samples = 10<br/>value = [10, 0]>, fillcolor="#e58139"] ;
29 -> 31 ;
32 [label=<gini = 0.0<br/>samples = 2<br/>value = [0, 2]>, fillcolor="#399de5"] ;
28 -> 32 ;
33 [label=<gini = 0.0<br/>samples = 35<br/>value = [35, 0]>, fillcolor="#e58139"] ;
27 -> 33 ;
34 [label=<gini = 0.0<br/>samples = 1<br/>value = [0, 1]>, fillcolor="#399de5"] ;
26 -> 34 ;
35 [label=<gini = 0.0<br/>samples = 1<br/>value = [0, 1]>, fillcolor="#399de5"] ;
25 -> 35 ;
36 [label=<gini = 0.0<br/>samples = 53<br/>value = [53, 0]>, fillcolor="#e58139"] ;
24 -> 36 ;
37 [label=<gini = 0.0<br/>samples = 2<br/>value = [0, 2]>, fillcolor="#399de5"] ;
7 -> 37 ;
38 [label=<x<SUB>1</SUB> &le; -0.36<br/>gini = 0.285<br/>samples = 2436<br/>value = [2016, 420]>, fillcolor="#ea9b62"] ;
6 -> 38 ;
39 [label=<x<SUB>7</SUB> &le; 2.5<br/>gini = 0.173<br/>samples = 650<br/>value = [588, 62]>, fillcolor="#e88e4e"] ;
38 -> 39 ;
40 [label=<x<SUB>1</SUB> &le; -0.444<br/>gini = 0.144<br/>samples = 575<br/>value = [530, 45]>, fillcolor="#e78c4a"] ;
39 -> 40 ;
41 [label=<x<SUB>1</SUB> &le; -0.465<br/>gini = 0.074<br/>samples = 261<br/>value = [251, 10]>, fillcolor="#e68641"] ;
40 -> 41 ;
42 [label=<x<SUB>24</SUB> &le; 0.5<br/>gini = 0.122<br/>samples = 153<br/>value = [143, 10]>, fillcolor="#e78a47"] ;
41 -> 42 ;
43 [label=<x<SUB>22</SUB> &le; 1.105<br/>gini = 0.171<br/>samples = 106<br/>value = [96, 10]>, fillcolor="#e88e4e"] ;
42 -> 43 ;
44 [label=<x<SUB>8</SUB> &le; 0.184<br/>gini = 0.119<br/>samples = 79<br/>value = [74, 5]>, fillcolor="#e78a46"] ;
43 -> 44 ;
45 [label=<x<SUB>4</SUB> &le; -0.5<br/>gini = 0.1<br/>samples = 76<br/>value = [72, 4]>, fillcolor="#e68844"] ;
44 -> 45 ;
46 [label=<gini = 0.0<br/>samples = 28<br/>value = [28, 0]>, fillcolor="#e58139"] ;
45 -> 46 ;
47 [label=<x<SUB>3</SUB> &le; 0.75<br/>gini = 0.153<br/>samples = 48<br/>value = [44, 4]>, fillcolor="#e78c4b"] ;
45 -> 47 ;
48 [label=<x<SUB>8</SUB> &le; -0.306<br/>gini = 0.124<br/>samples = 45<br/>value = [42, 3]>, fillcolor="#e78a47"] ;
47 -> 48 ;
49 [label=<x<SUB>2</SUB> &le; -0.25<br/>gini = 0.375<br/>samples = 4<br/>value = [3, 1]>, fillcolor="#eeab7b"] ;
48 -> 49 ;
50 [label=<gini = 0.0<br/>samples = 3<br/>value = [3, 0]>, fillcolor="#e58139"] ;
49 -> 50 ;
51 [label=<gini = 0.0<br/>samples = 1<br/>value = [0, 1]>, fillcolor="#399de5"] ;
49 -> 51 ;
52 [label=<x<SUB>15</SUB> &le; 0.167<br/>gini = 0.093<br/>samples = 41<br/>value = [39, 2]>, fillcolor="#e68743"] ;
48 -> 52 ;
53 [label=<x<SUB>22</SUB> &le; -0.842<br/>gini = 0.188<br/>samples = 19<br/>value = [17, 2]>, fillcolor="#e89050"] ;
52 -> 53 ;
54 [label=<x<SUB>2</SUB> &le; -0.25<br/>gini = 0.5<br/>samples = 2<br/>value = [1, 1]>, fillcolor="#ffffff"] ;
53 -> 54 ;
55 [label=<gini = 0.0<br/>samples = 1<br/>value = [0, 1]>, fillcolor="#399de5"] ;
54 -> 55 ;
56 [label=<gini = 0.0<br/>samples = 1<br/>value = [1, 0]>, fillcolor="#e58139"] ;
54 -> 56 ;
57 [label=<x<SUB>1</SUB> &le; -0.472<br/>gini = 0.111<br/>samples = 17<br/>value = [16, 1]>, fillcolor="#e78945"] ;
53 -> 57 ;
58 [label=<gini = 0.0<br/>samples = 11<br/>value = [11, 0]>, fillcolor="#e58139"] ;
57 -> 58 ;
59 [label=<x<SUB>8</SUB> &le; -0.123<br/>gini = 0.278<br/>samples = 6<br/>value = [5, 1]>, fillcolor="#ea9a61"] ;
57 -> 59 ;
60 [label=<gini = 0.0<br/>samples = 1<br/>value = [0, 1]>, fillcolor="#399de5"] ;
59 -> 60 ;
61 [label=<gini = 0.0<br/>samples = 5<br/>value = [5, 0]>, fillcolor="#e58139"] ;
59 -> 61 ;
62 [label=<gini = 0.0<br/>samples = 22<br/>value = [22, 0]>, fillcolor="#e58139"] ;
52 -> 62 ;
63 [label=<x<SUB>2</SUB> &le; 0.0<br/>gini = 0.444<br/>samples = 3<br/>value = [2, 1]>, fillcolor="#f2c09c"] ;
47 -> 63 ;
64 [label=<gini = 0.0<br/>samples = 1<br/>value = [0, 1]>, fillcolor="#399de5"] ;
63 -> 64 ;
65 [label=<gini = 0.0<br/>samples = 2<br/>value = [2, 0]>, fillcolor="#e58139"] ;
63 -> 65 ;
66 [label=<x<SUB>15</SUB> &le; 0.5<br/>gini = 0.444<br/>samples = 3<br/>value = [2, 1]>, fillcolor="#f2c09c"] ;
44 -> 66 ;
67 [label=<gini = 0.0<br/>samples = 1<br/>value = [0, 1]>, fillcolor="#399de5"] ;
66 -> 67 ;
68 [label=<gini = 0.0<br/>samples = 2<br/>value = [2, 0]>, fillcolor="#e58139"] ;
66 -> 68 ;
69 [label=<x<SUB>22</SUB> &le; 1.158<br/>gini = 0.302<br/>samples = 27<br/>value = [22, 5]>, fillcolor="#eb9e66"] ;
43 -> 69 ;
70 [label=<gini = 0.0<br/>samples = 1<br/>value = [0, 1]>, fillcolor="#399de5"] ;
69 -> 70 ;
71 [label=<x<SUB>22</SUB> &le; 1.798<br/>gini = 0.26<br/>samples = 26<br/>value = [22, 4]>, fillcolor="#ea985d"] ;
69 -> 71 ;
72 [label=<x<SUB>22</SUB> &le; 1.632<br/>gini = 0.391<br/>samples = 15<br/>value = [11, 4]>, fillcolor="#eeaf81"] ;
71 -> 72 ;
73 [label=<x<SUB>9</SUB> &le; 0.44<br/>gini = 0.337<br/>samples = 14<br/>value = [11, 3]>, fillcolor="#eca36f"] ;
72 -> 73 ;
74 [label=<x<SUB>22</SUB> &le; 1.465<br/>gini = 0.444<br/>samples = 9<br/>value = [6, 3]>, fillcolor="#f2c09c"] ;
73 -> 74 ;
75 [label=<x<SUB>1</SUB> &le; -0.472<br/>gini = 0.278<br/>samples = 6<br/>value = [5, 1]>, fillcolor="#ea9a61"] ;
74 -> 75 ;
76 [label=<gini = 0.0<br/>samples = 3<br/>value = [3, 0]>, fillcolor="#e58139"] ;
75 -> 76 ;
77 [label=<x<SUB>2</SUB> &le; -0.25<br/>gini = 0.444<br/>samples = 3<br/>value = [2, 1]>, fillcolor="#f2c09c"] ;
75 -> 77 ;
78 [label=<x<SUB>0</SUB> &le; -0.5<br/>gini = 0.5<br/>samples = 2<br/>value = [1, 1]>, fillcolor="#ffffff"] ;
77 -> 78 ;
79 [label=<gini = 0.0<br/>samples = 1<br/>value = [1, 0]>, fillcolor="#e58139"] ;
78 -> 79 ;
80 [label=<gini = 0.0<br/>samples = 1<br/>value = [0, 1]>, fillcolor="#399de5"] ;
78 -> 80 ;
81 [label=<gini = 0.0<br/>samples = 1<br/>value = [1, 0]>, fillcolor="#e58139"] ;
77 -> 81 ;
82 [label=<x<SUB>4</SUB> &le; -0.5<br/>gini = 0.444<br/>samples = 3<br/>value = [1, 2]>, fillcolor="#9ccef2"] ;
74 -> 82 ;
83 [label=<gini = 0.0<br/>samples = 2<br/>value = [0, 2]>, fillcolor="#399de5"] ;
82 -> 83 ;
84 [label=<gini = 0.0<br/>samples = 1<br/>value = [1, 0]>, fillcolor="#e58139"] ;
82 -> 84 ;
85 [label=<gini = 0.0<br/>samples = 5<br/>value = [5, 0]>, fillcolor="#e58139"] ;
73 -> 85 ;
86 [label=<gini = 0.0<br/>samples = 1<br/>value = [0, 1]>, fillcolor="#399de5"] ;
72 -> 86 ;
87 [label=<gini = 0.0<br/>samples = 11<br/>value = [11, 0]>, fillcolor="#e58139"] ;
71 -> 87 ;
88 [label=<gini = 0.0<br/>samples = 47<br/>value = [47, 0]>, fillcolor="#e58139"] ;
42 -> 88 ;
89 [label=<gini = 0.0<br/>samples = 108<br/>value = [108, 0]>, fillcolor="#e58139"] ;
41 -> 89 ;
90 [label=<x<SUB>14</SUB> &le; 0.5<br/>gini = 0.198<br/>samples = 314<br/>value = [279, 35]>, fillcolor="#e89152"] ;
40 -> 90 ;
91 [label=<x<SUB>1</SUB> &le; -0.437<br/>gini = 0.14<br/>samples = 198<br/>value = [183, 15]>, fillcolor="#e78b49"] ;
90 -> 91 ;
92 [label=<x<SUB>8</SUB> &le; -0.123<br/>gini = 0.32<br/>samples = 25<br/>value = [20, 5]>, fillcolor="#eca06a"] ;
91 -> 92 ;
93 [label=<x<SUB>16</SUB> &le; 0.5<br/>gini = 0.463<br/>samples = 11<br/>value = [7, 4]>, fillcolor="#f4c9aa"] ;
92 -> 93 ;
94 [label=<x<SUB>24</SUB> &le; 0.5<br/>gini = 0.48<br/>samples = 5<br/>value = [2, 3]>, fillcolor="#bddef6"] ;
93 -> 94 ;
95 [label=<x<SUB>8</SUB> &le; -0.211<br/>gini = 0.444<br/>samples = 3<br/>value = [2, 1]>, fillcolor="#f2c09c"] ;
94 -> 95 ;
96 [label=<gini = 0.0<br/>samples = 2<br/>value = [2, 0]>, fillcolor="#e58139"] ;
95 -> 96 ;
97 [label=<gini = 0.0<br/>samples = 1<br/>value = [0, 1]>, fillcolor="#399de5"] ;
95 -> 97 ;
98 [label=<gini = 0.0<br/>samples = 2<br/>value = [0, 2]>, fillcolor="#399de5"] ;
94 -> 98 ;
99 [label=<x<SUB>22</SUB> &le; -0.026<br/>gini = 0.278<br/>samples = 6<br/>value = [5, 1]>, fillcolor="#ea9a61"] ;
93 -> 99 ;
100 [label=<gini = 0.0<br/>samples = 1<br/>value = [0, 1]>, fillcolor="#399de5"] ;
99 -> 100 ;
101 [label=<gini = 0.0<br/>samples = 5<br/>value = [5, 0]>, fillcolor="#e58139"] ;
99 -> 101 ;
102 [label=<x<SUB>10</SUB> &le; -0.757<br/>gini = 0.133<br/>samples = 14<br/>value = [13, 1]>, fillcolor="#e78b48"] ;
92 -> 102 ;
103 [label=<x<SUB>22</SUB> &le; 0.105<br/>gini = 0.375<br/>samples = 4<br/>value = [3, 1]>, fillcolor="#eeab7b"] ;
102 -> 103 ;
104 [label=<gini = 0.0<br/>samples = 3<br/>value = [3, 0]>, fillcolor="#e58139"] ;
103 -> 104 ;
105 [label=<gini = 0.0<br/>samples = 1<br/>value = [0, 1]>, fillcolor="#399de5"] ;
103 -> 105 ;
106 [label=<gini = 0.0<br/>samples = 10<br/>value = [10, 0]>, fillcolor="#e58139"] ;
102 -> 106 ;
107 [label=<x<SUB>22</SUB> &le; -0.27<br/>gini = 0.109<br/>samples = 173<br/>value = [163, 10]>, fillcolor="#e78945"] ;
91 -> 107 ;
108 [label=<x<SUB>4</SUB> &le; -0.5<br/>gini = 0.271<br/>samples = 31<br/>value = [26, 5]>, fillcolor="#ea995f"] ;
107 -> 108 ;
109 [label=<x<SUB>24</SUB> &le; 0.5<br/>gini = 0.459<br/>samples = 14<br/>value = [9, 5]>, fillcolor="#f3c7a7"] ;
108 -> 109 ;
110 [label=<x<SUB>18</SUB> &le; -1.506<br/>gini = 0.298<br/>samples = 11<br/>value = [9, 2]>, fillcolor="#eb9d65"] ;
109 -> 110 ;
111 [label=<gini = 0.0<br/>samples = 6<br/>value = [6, 0]>, fillcolor="#e58139"] ;
110 -> 111 ;
112 [label=<x<SUB>3</SUB> &le; -0.25<br/>gini = 0.48<br/>samples = 5<br/>value = [3, 2]>, fillcolor="#f6d5bd"] ;
110 -> 112 ;
113 [label=<x<SUB>22</SUB> &le; -0.614<br/>gini = 0.444<br/>samples = 3<br/>value = [1, 2]>, fillcolor="#9ccef2"] ;
112 -> 113 ;
114 [label=<gini = 0.0<br/>samples = 1<br/>value = [1, 0]>, fillcolor="#e58139"] ;
113 -> 114 ;
115 [label=<gini = 0.0<br/>samples = 2<br/>value = [0, 2]>, fillcolor="#399de5"] ;
113 -> 115 ;
116 [label=<gini = 0.0<br/>samples = 2<br/>value = [2, 0]>, fillcolor="#e58139"] ;
112 -> 116 ;
117 [label=<gini = 0.0<br/>samples = 3<br/>value = [0, 3]>, fillcolor="#399de5"] ;
109 -> 117 ;
118 [label=<gini = 0.0<br/>samples = 17<br/>value = [17, 0]>, fillcolor="#e58139"] ;
108 -> 118 ;
119 [label=<x<SUB>22</SUB> &le; 1.158<br/>gini = 0.068<br/>samples = 142<br/>value = [137, 5]>, fillcolor="#e68640"] ;
107 -> 119 ;
120 [label=<x<SUB>8</SUB> &le; -0.387<br/>gini = 0.017<br/>samples = 120<br/>value = [119, 1]>, fillcolor="#e5823b"] ;
119 -> 120 ;
121 [label=<x<SUB>2</SUB> &le; -0.25<br/>gini = 0.375<br/>samples = 4<br/>value = [3, 1]>, fillcolor="#eeab7b"] ;
120 -> 121 ;
122 [label=<gini = 0.0<br/>samples = 2<br/>value = [2, 0]>, fillcolor="#e58139"] ;
121 -> 122 ;
123 [label=<gini = 0.5<br/>samples = 2<br/>value = [1, 1]>, fillcolor="#ffffff"] ;
121 -> 123 ;
124 [label=<gini = 0.0<br/>samples = 116<br/>value = [116, 0]>, fillcolor="#e58139"] ;
120 -> 124 ;
125 [label=<x<SUB>24</SUB> &le; 0.5<br/>gini = 0.298<br/>samples = 22<br/>value = [18, 4]>, fillcolor="#eb9d65"] ;
119 -> 125 ;
126 [label=<x<SUB>18</SUB> &le; -1.324<br/>gini = 0.48<br/>samples = 10<br/>value = [6, 4]>, fillcolor="#f6d5bd"] ;
125 -> 126 ;
127 [label=<gini = 0.0<br/>samples = 3<br/>value = [0, 3]>, fillcolor="#399de5"] ;
126 -> 127 ;
128 [label=<x<SUB>22</SUB> &le; 1.246<br/>gini = 0.245<br/>samples = 7<br/>value = [6, 1]>, fillcolor="#e9965a"] ;
126 -> 128 ;
129 [label=<x<SUB>8</SUB> &le; -0.123<br/>gini = 0.5<br/>samples = 2<br/>value = [1, 1]>, fillcolor="#ffffff"] ;
128 -> 129 ;
130 [label=<gini = 0.0<br/>samples = 1<br/>value = [0, 1]>, fillcolor="#399de5"] ;
129 -> 130 ;
131 [label=<gini = 0.0<br/>samples = 1<br/>value = [1, 0]>, fillcolor="#e58139"] ;
129 -> 131 ;
132 [label=<gini = 0.0<br/>samples = 5<br/>value = [5, 0]>, fillcolor="#e58139"] ;
128 -> 132 ;
133 [label=<gini = 0.0<br/>samples = 12<br/>value = [12, 0]>, fillcolor="#e58139"] ;
125 -> 133 ;
134 [label=<x<SUB>14</SUB> &le; 0.833<br/>gini = 0.285<br/>samples = 116<br/>value = [96, 20]>, fillcolor="#ea9b62"] ;
90 -> 134 ;
135 [label=<gini = 0.0<br/>samples = 2<br/>value = [0, 2]>, fillcolor="#399de5"] ;
134 -> 135 ;
136 [label=<x<SUB>24</SUB> &le; 0.5<br/>gini = 0.266<br/>samples = 114<br/>value = [96, 18]>, fillcolor="#ea995e"] ;
134 -> 136 ;
137 [label=<x<SUB>1</SUB> &le; -0.423<br/>gini = 0.333<br/>samples = 71<br/>value = [56, 15]>, fillcolor="#eca36e"] ;
136 -> 137 ;
138 [label=<x<SUB>8</SUB> &le; 0.016<br/>gini = 0.1<br/>samples = 19<br/>value = [18, 1]>, fillcolor="#e68844"] ;
137 -> 138 ;
139 [label=<gini = 0.0<br/>samples = 17<br/>value = [17, 0]>, fillcolor="#e58139"] ;
138 -> 139 ;
140 [label=<x<SUB>1</SUB> &le; -0.43<br/>gini = 0.5<br/>samples = 2<br/>value = [1, 1]>, fillcolor="#ffffff"] ;
138 -> 140 ;
141 [label=<gini = 0.0<br/>samples = 1<br/>value = [1, 0]>, fillcolor="#e58139"] ;
140 -> 141 ;
142 [label=<gini = 0.0<br/>samples = 1<br/>value = [0, 1]>, fillcolor="#399de5"] ;
140 -> 142 ;
143 [label=<x<SUB>3</SUB> &le; 0.75<br/>gini = 0.393<br/>samples = 52<br/>value = [38, 14]>, fillcolor="#efaf82"] ;
137 -> 143 ;
144 [label=<x<SUB>22</SUB> &le; 0.432<br/>gini = 0.325<br/>samples = 44<br/>value = [35, 9]>, fillcolor="#eca16c"] ;
143 -> 144 ;
145 [label=<x<SUB>4</SUB> &le; -0.5<br/>gini = 0.48<br/>samples = 15<br/>value = [9, 6]>, fillcolor="#f6d5bd"] ;
144 -> 145 ;
146 [label=<gini = 0.0<br/>samples = 2<br/>value = [0, 2]>, fillcolor="#399de5"] ;
145 -> 146 ;
147 [label=<x<SUB>8</SUB> &le; -0.211<br/>gini = 0.426<br/>samples = 13<br/>value = [9, 4]>, fillcolor="#f1b991"] ;
145 -> 147 ;
148 [label=<gini = 0.0<br/>samples = 5<br/>value = [5, 0]>, fillcolor="#e58139"] ;
147 -> 148 ;
149 [label=<x<SUB>8</SUB> &le; -0.142<br/>gini = 0.5<br/>samples = 8<br/>value = [4, 4]>, fillcolor="#ffffff"] ;
147 -> 149 ;
150 [label=<x<SUB>1</SUB> &le; -0.381<br/>gini = 0.32<br/>samples = 5<br/>value = [1, 4]>, fillcolor="#6ab6ec"] ;
149 -> 150 ;
151 [label=<gini = 0.0<br/>samples = 3<br/>value = [0, 3]>, fillcolor="#399de5"] ;
150 -> 151 ;
152 [label=<x<SUB>22</SUB> &le; -0.513<br/>gini = 0.5<br/>samples = 2<br/>value = [1, 1]>, fillcolor="#ffffff"] ;
150 -> 152 ;
153 [label=<gini = 0.0<br/>samples = 1<br/>value = [0, 1]>, fillcolor="#399de5"] ;
152 -> 153 ;
154 [label=<gini = 0.0<br/>samples = 1<br/>value = [1, 0]>, fillcolor="#e58139"] ;
152 -> 154 ;
155 [label=<gini = 0.0<br/>samples = 3<br/>value = [3, 0]>, fillcolor="#e58139"] ;
149 -> 155 ;
156 [label=<x<SUB>0</SUB> &le; -0.5<br/>gini = 0.185<br/>samples = 29<br/>value = [26, 3]>, fillcolor="#e89050"] ;
144 -> 156 ;
157 [label=<x<SUB>1</SUB> &le; -0.399<br/>gini = 0.444<br/>samples = 6<br/>value = [4, 2]>, fillcolor="#f2c09c"] ;
156 -> 157 ;
158 [label=<gini = 0.0<br/>samples = 1<br/>value = [0, 1]>, fillcolor="#399de5"] ;
157 -> 158 ;
159 [label=<x<SUB>5</SUB> &le; 0.5<br/>gini = 0.32<br/>samples = 5<br/>value = [4, 1]>, fillcolor="#eca06a"] ;
157 -> 159 ;
160 [label=<gini = 0.0<br/>samples = 3<br/>value = [3, 0]>, fillcolor="#e58139"] ;
159 -> 160 ;
161 [label=<x<SUB>5</SUB> &le; 1.5<br/>gini = 0.5<br/>samples = 2<br/>value = [1, 1]>, fillcolor="#ffffff"] ;
159 -> 161 ;
162 [label=<gini = 0.0<br/>samples = 1<br/>value = [0, 1]>, fillcolor="#399de5"] ;
161 -> 162 ;
163 [label=<gini = 0.0<br/>samples = 1<br/>value = [1, 0]>, fillcolor="#e58139"] ;
161 -> 163 ;
164 [label=<x<SUB>8</SUB> &le; 0.184<br/>gini = 0.083<br/>samples = 23<br/>value = [22, 1]>, fillcolor="#e68742"] ;
156 -> 164 ;
165 [label=<gini = 0.0<br/>samples = 20<br/>value = [20, 0]>, fillcolor="#e58139"] ;
164 -> 165 ;
166 [label=<x<SUB>22</SUB> &le; 1.105<br/>gini = 0.444<br/>samples = 3<br/>value = [2, 1]>, fillcolor="#f2c09c"] ;
164 -> 166 ;
167 [label=<gini = 0.0<br/>samples = 2<br/>value = [2, 0]>, fillcolor="#e58139"] ;
166 -> 167 ;
168 [label=<gini = 0.0<br/>samples = 1<br/>value = [0, 1]>, fillcolor="#399de5"] ;
166 -> 168 ;
169 [label=<x<SUB>15</SUB> &le; 1.833<br/>gini = 0.469<br/>samples = 8<br/>value = [3, 5]>, fillcolor="#b0d8f5"] ;
143 -> 169 ;
170 [label=<gini = 0.0<br/>samples = 4<br/>value = [0, 4]>, fillcolor="#399de5"] ;
169 -> 170 ;
171 [label=<x<SUB>0</SUB> &le; -0.5<br/>gini = 0.375<br/>samples = 4<br/>value = [3, 1]>, fillcolor="#eeab7b"] ;
169 -> 171 ;
172 [label=<x<SUB>15</SUB> &le; 2.167<br/>gini = 0.5<br/>samples = 2<br/>value = [1, 1]>, fillcolor="#ffffff"] ;
171 -> 172 ;
173 [label=<gini = 0.0<br/>samples = 1<br/>value = [0, 1]>, fillcolor="#399de5"] ;
172 -> 173 ;
174 [label=<gini = 0.0<br/>samples = 1<br/>value = [1, 0]>, fillcolor="#e58139"] ;
172 -> 174 ;
175 [label=<gini = 0.0<br/>samples = 2<br/>value = [2, 0]>, fillcolor="#e58139"] ;
171 -> 175 ;
176 [label=<x<SUB>8</SUB> &le; -0.332<br/>gini = 0.13<br/>samples = 43<br/>value = [40, 3]>, fillcolor="#e78a48"] ;
136 -> 176 ;
177 [label=<x<SUB>1</SUB> &le; -0.402<br/>gini = 0.444<br/>samples = 3<br/>value = [1, 2]>, fillcolor="#9ccef2"] ;
176 -> 177 ;
178 [label=<gini = 0.0<br/>samples = 2<br/>value = [0, 2]>, fillcolor="#399de5"] ;
177 -> 178 ;
179 [label=<gini = 0.0<br/>samples = 1<br/>value = [1, 0]>, fillcolor="#e58139"] ;
177 -> 179 ;
180 [label=<x<SUB>1</SUB> &le; -0.437<br/>gini = 0.049<br/>samples = 40<br/>value = [39, 1]>, fillcolor="#e6843e"] ;
176 -> 180 ;
181 [label=<x<SUB>22</SUB> &le; 2.132<br/>gini = 0.375<br/>samples = 4<br/>value = [3, 1]>, fillcolor="#eeab7b"] ;
180 -> 181 ;
182 [label=<gini = 0.0<br/>samples = 3<br/>value = [3, 0]>, fillcolor="#e58139"] ;
181 -> 182 ;
183 [label=<gini = 0.0<br/>samples = 1<br/>value = [0, 1]>, fillcolor="#399de5"] ;
181 -> 183 ;
184 [label=<gini = 0.0<br/>samples = 36<br/>value = [36, 0]>, fillcolor="#e58139"] ;
180 -> 184 ;
185 [label=<x<SUB>22</SUB> &le; -0.219<br/>gini = 0.351<br/>samples = 75<br/>value = [58, 17]>, fillcolor="#eda673"] ;
39 -> 185 ;
186 [label=<x<SUB>8</SUB> &le; -0.346<br/>gini = 0.444<br/>samples = 15<br/>value = [5, 10]>, fillcolor="#9ccef2"] ;
185 -> 186 ;
187 [label=<x<SUB>3</SUB> &le; -0.75<br/>gini = 0.32<br/>samples = 5<br/>value = [4, 1]>, fillcolor="#eca06a"] ;
186 -> 187 ;
188 [label=<gini = 0.0<br/>samples = 1<br/>value = [0, 1]>, fillcolor="#399de5"] ;
187 -> 188 ;
189 [label=<gini = 0.0<br/>samples = 4<br/>value = [4, 0]>, fillcolor="#e58139"] ;
187 -> 189 ;
190 [label=<x<SUB>14</SUB> &le; 0.5<br/>gini = 0.18<br/>samples = 10<br/>value = [1, 9]>, fillcolor="#4fa8e8"] ;
186 -> 190 ;
191 [label=<gini = 0.0<br/>samples = 9<br/>value = [0, 9]>, fillcolor="#399de5"] ;
190 -> 191 ;
192 [label=<gini = 0.0<br/>samples = 1<br/>value = [1, 0]>, fillcolor="#e58139"] ;
190 -> 192 ;
193 [label=<x<SUB>16</SUB> &le; 3.5<br/>gini = 0.206<br/>samples = 60<br/>value = [53, 7]>, fillcolor="#e89253"] ;
185 -> 193 ;
194 [label=<x<SUB>22</SUB> &le; 0.439<br/>gini = 0.183<br/>samples = 59<br/>value = [53, 6]>, fillcolor="#e88f4f"] ;
193 -> 194 ;
195 [label=<gini = 0.0<br/>samples = 24<br/>value = [24, 0]>, fillcolor="#e58139"] ;
194 -> 195 ;
196 [label=<x<SUB>1</SUB> &le; -0.465<br/>gini = 0.284<br/>samples = 35<br/>value = [29, 6]>, fillcolor="#ea9b62"] ;
194 -> 196 ;
197 [label=<gini = 0.0<br/>samples = 12<br/>value = [12, 0]>, fillcolor="#e58139"] ;
196 -> 197 ;
198 [label=<x<SUB>9</SUB> &le; 0.44<br/>gini = 0.386<br/>samples = 23<br/>value = [17, 6]>, fillcolor="#eead7f"] ;
196 -> 198 ;
199 [label=<x<SUB>14</SUB> &le; 0.667<br/>gini = 0.469<br/>samples = 16<br/>value = [10, 6]>, fillcolor="#f5cdb0"] ;
198 -> 199 ;
200 [label=<x<SUB>4</SUB> &le; -0.5<br/>gini = 0.408<br/>samples = 14<br/>value = [10, 4]>, fillcolor="#efb388"] ;
199 -> 200 ;
201 [label=<gini = 0.0<br/>samples = 5<br/>value = [5, 0]>, fillcolor="#e58139"] ;
200 -> 201 ;
202 [label=<x<SUB>8</SUB> &le; -0.19<br/>gini = 0.494<br/>samples = 9<br/>value = [5, 4]>, fillcolor="#fae6d7"] ;
200 -> 202 ;
203 [label=<x<SUB>2</SUB> &le; -0.25<br/>gini = 0.408<br/>samples = 7<br/>value = [5, 2]>, fillcolor="#efb388"] ;
202 -> 203 ;
204 [label=<x<SUB>15</SUB> &le; 0.167<br/>gini = 0.444<br/>samples = 3<br/>value = [1, 2]>, fillcolor="#9ccef2"] ;
203 -> 204 ;
205 [label=<gini = 0.0<br/>samples = 2<br/>value = [0, 2]>, fillcolor="#399de5"] ;
204 -> 205 ;
206 [label=<gini = 0.0<br/>samples = 1<br/>value = [1, 0]>, fillcolor="#e58139"] ;
204 -> 206 ;
207 [label=<gini = 0.0<br/>samples = 4<br/>value = [4, 0]>, fillcolor="#e58139"] ;
203 -> 207 ;
208 [label=<gini = 0.0<br/>samples = 2<br/>value = [0, 2]>, fillcolor="#399de5"] ;
202 -> 208 ;
209 [label=<gini = 0.0<br/>samples = 2<br/>value = [0, 2]>, fillcolor="#399de5"] ;
199 -> 209 ;
210 [label=<gini = 0.0<br/>samples = 7<br/>value = [7, 0]>, fillcolor="#e58139"] ;
198 -> 210 ;
211 [label=<gini = 0.0<br/>samples = 1<br/>value = [0, 1]>, fillcolor="#399de5"] ;
193 -> 211 ;
212 [label=<x<SUB>8</SUB> &le; -0.163<br/>gini = 0.321<br/>samples = 1786<br/>value = [1428, 358]>, fillcolor="#eca16b"] ;
38 -> 212 ;
213 [label=<x<SUB>1</SUB> &le; 1.787<br/>gini = 0.266<br/>samples = 1175<br/>value = [989, 186]>, fillcolor="#ea995e"] ;
212 -> 213 ;
214 [label=<x<SUB>5</SUB> &le; 2.5<br/>gini = 0.263<br/>samples = 1171<br/>value = [989, 182]>, fillcolor="#ea985d"] ;
213 -> 214 ;
215 [label=<x<SUB>24</SUB> &le; 0.5<br/>gini = 0.26<br/>samples = 1166<br/>value = [987, 179]>, fillcolor="#ea985d"] ;
214 -> 215 ;
216 [label=<x<SUB>1</SUB> &le; 0.895<br/>gini = 0.291<br/>samples = 685<br/>value = [564, 121]>, fillcolor="#eb9c63"] ;
215 -> 216 ;
217 [label=<x<SUB>22</SUB> &le; 0.539<br/>gini = 0.271<br/>samples = 606<br/>value = [508, 98]>, fillcolor="#ea995f"] ;
216 -> 217 ;
218 [label=<x<SUB>0</SUB> &le; -0.5<br/>gini = 0.232<br/>samples = 388<br/>value = [336, 52]>, fillcolor="#e99458"] ;
217 -> 218 ;
219 [label=<x<SUB>8</SUB> &le; -0.167<br/>gini = 0.352<br/>samples = 114<br/>value = [88, 26]>, fillcolor="#eda674"] ;
218 -> 219 ;
220 [label=<x<SUB>1</SUB> &le; 0.738<br/>gini = 0.418<br/>samples = 74<br/>value = [52, 22]>, fillcolor="#f0b68d"] ;
219 -> 220 ;
221 [label=<x<SUB>1</SUB> &le; -0.297<br/>gini = 0.401<br/>samples = 72<br/>value = [52, 20]>, fillcolor="#efb185"] ;
220 -> 221 ;
222 [label=<gini = 0.0<br/>samples = 7<br/>value = [7, 0]>, fillcolor="#e58139"] ;
221 -> 222 ;
223 [label=<x<SUB>1</SUB> &le; -0.143<br/>gini = 0.426<br/>samples = 65<br/>value = [45, 20]>, fillcolor="#f1b991"] ;
221 -> 223 ;
224 [label=<x<SUB>1</SUB> &le; -0.164<br/>gini = 0.491<br/>samples = 23<br/>value = [13, 10]>, fillcolor="#f9e2d1"] ;
223 -> 224 ;
225 [label=<x<SUB>22</SUB> &le; -0.955<br/>gini = 0.415<br/>samples = 17<br/>value = [12, 5]>, fillcolor="#f0b58b"] ;
224 -> 225 ;
226 [label=<x<SUB>8</SUB> &le; -0.278<br/>gini = 0.48<br/>samples = 5<br/>value = [2, 3]>, fillcolor="#bddef6"] ;
225 -> 226 ;
227 [label=<gini = 0.0<br/>samples = 2<br/>value = [2, 0]>, fillcolor="#e58139"] ;
226 -> 227 ;
228 [label=<gini = 0.0<br/>samples = 3<br/>value = [0, 3]>, fillcolor="#399de5"] ;
226 -> 228 ;
229 [label=<x<SUB>2</SUB> &le; 0.25<br/>gini = 0.278<br/>samples = 12<br/>value = [10, 2]>, fillcolor="#ea9a61"] ;
225 -> 229 ;
230 [label=<x<SUB>2</SUB> &le; -0.25<br/>gini = 0.444<br/>samples = 6<br/>value = [4, 2]>, fillcolor="#f2c09c"] ;
229 -> 230 ;
231 [label=<x<SUB>8</SUB> &le; -0.291<br/>gini = 0.32<br/>samples = 5<br/>value = [4, 1]>, fillcolor="#eca06a"] ;
230 -> 231 ;
232 [label=<gini = 0.0<br/>samples = 1<br/>value = [0, 1]>, fillcolor="#399de5"] ;
231 -> 232 ;
233 [label=<gini = 0.0<br/>samples = 4<br/>value = [4, 0]>, fillcolor="#e58139"] ;
231 -> 233 ;
234 [label=<gini = 0.0<br/>samples = 1<br/>value = [0, 1]>, fillcolor="#399de5"] ;
230 -> 234 ;
235 [label=<gini = 0.0<br/>samples = 6<br/>value = [6, 0]>, fillcolor="#e58139"] ;
229 -> 235 ;
236 [label=<x<SUB>14</SUB> &le; 0.5<br/>gini = 0.278<br/>samples = 6<br/>value = [1, 5]>, fillcolor="#61b1ea"] ;
224 -> 236 ;
237 [label=<gini = 0.0<br/>samples = 1<br/>value = [1, 0]>, fillcolor="#e58139"] ;
236 -> 237 ;
238 [label=<gini = 0.0<br/>samples = 5<br/>value = [0, 5]>, fillcolor="#399de5"] ;
236 -> 238 ;
239 [label=<x<SUB>15</SUB> &le; 0.333<br/>gini = 0.363<br/>samples = 42<br/>value = [32, 10]>, fillcolor="#eda877"] ;
223 -> 239 ;
240 [label=<x<SUB>1</SUB> &le; 0.003<br/>gini = 0.48<br/>samples = 5<br/>value = [2, 3]>, fillcolor="#bddef6"] ;
239 -> 240 ;
241 [label=<gini = 0.0<br/>samples = 2<br/>value = [2, 0]>, fillcolor="#e58139"] ;
240 -> 241 ;
242 [label=<gini = 0.0<br/>samples = 3<br/>value = [0, 3]>, fillcolor="#399de5"] ;
240 -> 242 ;
243 [label=<x<SUB>14</SUB> &le; 1.167<br/>gini = 0.307<br/>samples = 37<br/>value = [30, 7]>, fillcolor="#eb9e67"] ;
239 -> 243 ;
244 [label=<gini = 0.0<br/>samples = 15<br/>value = [15, 0]>, fillcolor="#e58139"] ;
243 -> 244 ;
245 [label=<x<SUB>22</SUB> &le; -0.547<br/>gini = 0.434<br/>samples = 22<br/>value = [15, 7]>, fillcolor="#f1bc95"] ;
243 -> 245 ;
246 [label=<gini = 0.0<br/>samples = 3<br/>value = [0, 3]>, fillcolor="#399de5"] ;
245 -> 246 ;
247 [label=<x<SUB>3</SUB> &le; -0.25<br/>gini = 0.332<br/>samples = 19<br/>value = [15, 4]>, fillcolor="#eca36e"] ;
245 -> 247 ;
248 [label=<gini = 0.0<br/>samples = 1<br/>value = [0, 1]>, fillcolor="#399de5"] ;
247 -> 248 ;
249 [label=<x<SUB>3</SUB> &le; 0.75<br/>gini = 0.278<br/>samples = 18<br/>value = [15, 3]>, fillcolor="#ea9a61"] ;
247 -> 249 ;
250 [label=<x<SUB>8</SUB> &le; -0.214<br/>gini = 0.42<br/>samples = 10<br/>value = [7, 3]>, fillcolor="#f0b78e"] ;
249 -> 250 ;
251 [label=<x<SUB>1</SUB> &le; 0.507<br/>gini = 0.346<br/>samples = 9<br/>value = [7, 2]>, fillcolor="#eca572"] ;
250 -> 251 ;
252 [label=<x<SUB>22</SUB> &le; 0.047<br/>gini = 0.219<br/>samples = 8<br/>value = [7, 1]>, fillcolor="#e99355"] ;
251 -> 252 ;
253 [label=<gini = 0.0<br/>samples = 6<br/>value = [6, 0]>, fillcolor="#e58139"] ;
252 -> 253 ;
254 [label=<x<SUB>14</SUB> &le; 1.667<br/>gini = 0.5<br/>samples = 2<br/>value = [1, 1]>, fillcolor="#ffffff"] ;
252 -> 254 ;
255 [label=<gini = 0.0<br/>samples = 1<br/>value = [0, 1]>, fillcolor="#399de5"] ;
254 -> 255 ;
256 [label=<gini = 0.0<br/>samples = 1<br/>value = [1, 0]>, fillcolor="#e58139"] ;
254 -> 256 ;
257 [label=<gini = 0.0<br/>samples = 1<br/>value = [0, 1]>, fillcolor="#399de5"] ;
251 -> 257 ;
258 [label=<gini = 0.0<br/>samples = 1<br/>value = [0, 1]>, fillcolor="#399de5"] ;
250 -> 258 ;
259 [label=<gini = 0.0<br/>samples = 8<br/>value = [8, 0]>, fillcolor="#e58139"] ;
249 -> 259 ;
260 [label=<gini = 0.0<br/>samples = 2<br/>value = [0, 2]>, fillcolor="#399de5"] ;
220 -> 260 ;
261 [label=<x<SUB>15</SUB> &le; 0.333<br/>gini = 0.18<br/>samples = 40<br/>value = [36, 4]>, fillcolor="#e88f4f"] ;
219 -> 261 ;
262 [label=<x<SUB>4</SUB> &le; -0.5<br/>gini = 0.444<br/>samples = 3<br/>value = [1, 2]>, fillcolor="#9ccef2"] ;
261 -> 262 ;
263 [label=<gini = 0.0<br/>samples = 1<br/>value = [1, 0]>, fillcolor="#e58139"] ;
262 -> 263 ;
264 [label=<gini = 0.0<br/>samples = 2<br/>value = [0, 2]>, fillcolor="#399de5"] ;
262 -> 264 ;
265 [label=<x<SUB>1</SUB> &le; 0.675<br/>gini = 0.102<br/>samples = 37<br/>value = [35, 2]>, fillcolor="#e68844"] ;
261 -> 265 ;
266 [label=<x<SUB>1</SUB> &le; 0.017<br/>gini = 0.056<br/>samples = 35<br/>value = [34, 1]>, fillcolor="#e6853f"] ;
265 -> 266 ;
267 [label=<x<SUB>1</SUB> &le; -0.007<br/>gini = 0.153<br/>samples = 12<br/>value = [11, 1]>, fillcolor="#e78c4b"] ;
266 -> 267 ;
268 [label=<gini = 0.0<br/>samples = 11<br/>value = [11, 0]>, fillcolor="#e58139"] ;
267 -> 268 ;
269 [label=<gini = 0.0<br/>samples = 1<br/>value = [0, 1]>, fillcolor="#399de5"] ;
267 -> 269 ;
270 [label=<gini = 0.0<br/>samples = 23<br/>value = [23, 0]>, fillcolor="#e58139"] ;
266 -> 270 ;
271 [label=<x<SUB>3</SUB> &le; 2.25<br/>gini = 0.5<br/>samples = 2<br/>value = [1, 1]>, fillcolor="#ffffff"] ;
265 -> 271 ;
272 [label=<gini = 0.0<br/>samples = 1<br/>value = [1, 0]>, fillcolor="#e58139"] ;
271 -> 272 ;
273 [label=<gini = 0.0<br/>samples = 1<br/>value = [0, 1]>, fillcolor="#399de5"] ;
271 -> 273 ;
274 [label=<x<SUB>3</SUB> &le; -0.75<br/>gini = 0.172<br/>samples = 274<br/>value = [248, 26]>, fillcolor="#e88e4e"] ;
218 -> 274 ;
275 [label=<x<SUB>22</SUB> &le; -0.095<br/>gini = 0.49<br/>samples = 7<br/>value = [4, 3]>, fillcolor="#f8e0ce"] ;
274 -> 275 ;
276 [label=<gini = 0.0<br/>samples = 3<br/>value = [0, 3]>, fillcolor="#399de5"] ;
275 -> 276 ;
277 [label=<gini = 0.0<br/>samples = 4<br/>value = [4, 0]>, fillcolor="#e58139"] ;
275 -> 277 ;
278 [label=<x<SUB>1</SUB> &le; 0.493<br/>gini = 0.157<br/>samples = 267<br/>value = [244, 23]>, fillcolor="#e78d4c"] ;
274 -> 278 ;
279 [label=<x<SUB>1</SUB> &le; 0.486<br/>gini = 0.192<br/>samples = 205<br/>value = [183, 22]>, fillcolor="#e89051"] ;
278 -> 279 ;
280 [label=<x<SUB>5</SUB> &le; 0.5<br/>gini = 0.185<br/>samples = 204<br/>value = [183, 21]>, fillcolor="#e88f50"] ;
279 -> 280 ;
281 [label=<x<SUB>15</SUB> &le; 0.167<br/>gini = 0.172<br/>samples = 200<br/>value = [181, 19]>, fillcolor="#e88e4e"] ;
280 -> 281 ;
282 [label=<x<SUB>1</SUB> &le; 0.325<br/>gini = 0.209<br/>samples = 160<br/>value = [141, 19]>, fillcolor="#e99254"] ;
281 -> 282 ;
283 [label=<x<SUB>1</SUB> &le; 0.126<br/>gini = 0.168<br/>samples = 140<br/>value = [127, 13]>, fillcolor="#e88e4d"] ;
282 -> 283 ;
284 [label=<x<SUB>22</SUB> &le; 0.262<br/>gini = 0.205<br/>samples = 112<br/>value = [99, 13]>, fillcolor="#e89253"] ;
283 -> 284 ;
285 [label=<x<SUB>22</SUB> &le; -0.174<br/>gini = 0.159<br/>samples = 92<br/>value = [84, 8]>, fillcolor="#e78d4c"] ;
284 -> 285 ;
286 [label=<x<SUB>22</SUB> &le; -0.191<br/>gini = 0.237<br/>samples = 51<br/>value = [44, 7]>, fillcolor="#e99558"] ;
285 -> 286 ;
287 [label=<x<SUB>8</SUB> &le; -0.306<br/>gini = 0.211<br/>samples = 50<br/>value = [44, 6]>, fillcolor="#e99254"] ;
286 -> 287 ;
288 [label=<gini = 0.0<br/>samples = 12<br/>value = [12, 0]>, fillcolor="#e58139"] ;
287 -> 288 ;
289 [label=<x<SUB>1</SUB> &le; -0.308<br/>gini = 0.266<br/>samples = 38<br/>value = [32, 6]>, fillcolor="#ea995e"] ;
287 -> 289 ;
290 [label=<x<SUB>2</SUB> &le; -0.25<br/>gini = 0.5<br/>samples = 2<br/>value = [1, 1]>, fillcolor="#ffffff"] ;
289 -> 290 ;
291 [label=<gini = 0.0<br/>samples = 1<br/>value = [0, 1]>, fillcolor="#399de5"] ;
290 -> 291 ;
292 [label=<gini = 0.0<br/>samples = 1<br/>value = [1, 0]>, fillcolor="#e58139"] ;
290 -> 292 ;
293 [label=<x<SUB>22</SUB> &le; -0.288<br/>gini = 0.239<br/>samples = 36<br/>value = [31, 5]>, fillcolor="#e99559"] ;
289 -> 293 ;
294 [label=<x<SUB>3</SUB> &le; 0.75<br/>gini = 0.1<br/>samples = 19<br/>value = [18, 1]>, fillcolor="#e68844"] ;
293 -> 294 ;
295 [label=<gini = 0.0<br/>samples = 13<br/>value = [13, 0]>, fillcolor="#e58139"] ;
294 -> 295 ;
296 [label=<x<SUB>3</SUB> &le; 1.25<br/>gini = 0.278<br/>samples = 6<br/>value = [5, 1]>, fillcolor="#ea9a61"] ;
294 -> 296 ;
297 [label=<gini = 0.0<br/>samples = 1<br/>value = [0, 1]>, fillcolor="#399de5"] ;
296 -> 297 ;
298 [label=<gini = 0.0<br/>samples = 5<br/>value = [5, 0]>, fillcolor="#e58139"] ;
296 -> 298 ;
299 [label=<x<SUB>8</SUB> &le; -0.264<br/>gini = 0.36<br/>samples = 17<br/>value = [13, 4]>, fillcolor="#eda876"] ;
293 -> 299 ;
300 [label=<x<SUB>2</SUB> &le; 0.25<br/>gini = 0.444<br/>samples = 3<br/>value = [1, 2]>, fillcolor="#9ccef2"] ;
299 -> 300 ;
301 [label=<gini = 0.0<br/>samples = 2<br/>value = [0, 2]>, fillcolor="#399de5"] ;
300 -> 301 ;
302 [label=<gini = 0.0<br/>samples = 1<br/>value = [1, 0]>, fillcolor="#e58139"] ;
300 -> 302 ;
303 [label=<x<SUB>2</SUB> &le; 0.25<br/>gini = 0.245<br/>samples = 14<br/>value = [12, 2]>, fillcolor="#e9965a"] ;
299 -> 303 ;
304 [label=<x<SUB>8</SUB> &le; -0.167<br/>gini = 0.165<br/>samples = 11<br/>value = [10, 1]>, fillcolor="#e88e4d"] ;
303 -> 304 ;
305 [label=<gini = 0.0<br/>samples = 9<br/>value = [9, 0]>, fillcolor="#e58139"] ;
304 -> 305 ;
306 [label=<x<SUB>1</SUB> &le; -0.14<br/>gini = 0.5<br/>samples = 2<br/>value = [1, 1]>, fillcolor="#ffffff"] ;
304 -> 306 ;
307 [label=<gini = 0.0<br/>samples = 1<br/>value = [1, 0]>, fillcolor="#e58139"] ;
306 -> 307 ;
308 [label=<gini = 0.0<br/>samples = 1<br/>value = [0, 1]>, fillcolor="#399de5"] ;
306 -> 308 ;
309 [label=<x<SUB>22</SUB> &le; -0.263<br/>gini = 0.444<br/>samples = 3<br/>value = [2, 1]>, fillcolor="#f2c09c"] ;
303 -> 309 ;
310 [label=<gini = 0.0<br/>samples = 1<br/>value = [0, 1]>, fillcolor="#399de5"] ;
309 -> 310 ;
311 [label=<gini = 0.0<br/>samples = 2<br/>value = [2, 0]>, fillcolor="#e58139"] ;
309 -> 311 ;
312 [label=<gini = 0.0<br/>samples = 1<br/>value = [0, 1]>, fillcolor="#399de5"] ;
286 -> 312 ;
313 [label=<x<SUB>16</SUB> &le; 0.5<br/>gini = 0.048<br/>samples = 41<br/>value = [40, 1]>, fillcolor="#e6843e"] ;
285 -> 313 ;
314 [label=<gini = 0.0<br/>samples = 30<br/>value = [30, 0]>, fillcolor="#e58139"] ;
313 -> 314 ;
315 [label=<x<SUB>8</SUB> &le; -0.306<br/>gini = 0.165<br/>samples = 11<br/>value = [10, 1]>, fillcolor="#e88e4d"] ;
313 -> 315 ;
316 [label=<x<SUB>2</SUB> &le; 0.25<br/>gini = 0.5<br/>samples = 2<br/>value = [1, 1]>, fillcolor="#ffffff"] ;
315 -> 316 ;
317 [label=<gini = 0.0<br/>samples = 1<br/>value = [0, 1]>, fillcolor="#399de5"] ;
316 -> 317 ;
318 [label=<gini = 0.0<br/>samples = 1<br/>value = [1, 0]>, fillcolor="#e58139"] ;
316 -> 318 ;
319 [label=<gini = 0.0<br/>samples = 9<br/>value = [9, 0]>, fillcolor="#e58139"] ;
315 -> 319 ;
320 [label=<x<SUB>22</SUB> &le; 0.267<br/>gini = 0.375<br/>samples = 20<br/>value = [15, 5]>, fillcolor="#eeab7b"] ;
284 -> 320 ;
321 [label=<x<SUB>2</SUB> &le; -0.25<br/>gini = 0.444<br/>samples = 3<br/>value = [1, 2]>, fillcolor="#9ccef2"] ;
320 -> 321 ;
322 [label=<gini = 0.0<br/>samples = 2<br/>value = [0, 2]>, fillcolor="#399de5"] ;
321 -> 322 ;
323 [label=<gini = 0.0<br/>samples = 1<br/>value = [1, 0]>, fillcolor="#e58139"] ;
321 -> 323 ;
324 [label=<x<SUB>1</SUB> &le; -0.185<br/>gini = 0.291<br/>samples = 17<br/>value = [14, 3]>, fillcolor="#eb9c63"] ;
320 -> 324 ;
325 [label=<gini = 0.0<br/>samples = 9<br/>value = [9, 0]>, fillcolor="#e58139"] ;
324 -> 325 ;
326 [label=<x<SUB>8</SUB> &le; -0.332<br/>gini = 0.469<br/>samples = 8<br/>value = [5, 3]>, fillcolor="#f5cdb0"] ;
324 -> 326 ;
327 [label=<gini = 0.0<br/>samples = 1<br/>value = [0, 1]>, fillcolor="#399de5"] ;
326 -> 327 ;
328 [label=<x<SUB>1</SUB> &le; -0.122<br/>gini = 0.408<br/>samples = 7<br/>value = [5, 2]>, fillcolor="#efb388"] ;
326 -> 328 ;
329 [label=<x<SUB>2</SUB> &le; -0.25<br/>gini = 0.444<br/>samples = 3<br/>value = [1, 2]>, fillcolor="#9ccef2"] ;
328 -> 329 ;
330 [label=<gini = 0.0<br/>samples = 1<br/>value = [1, 0]>, fillcolor="#e58139"] ;
329 -> 330 ;
331 [label=<gini = 0.0<br/>samples = 2<br/>value = [0, 2]>, fillcolor="#399de5"] ;
329 -> 331 ;
332 [label=<gini = 0.0<br/>samples = 4<br/>value = [4, 0]>, fillcolor="#e58139"] ;
328 -> 332 ;
333 [label=<gini = 0.0<br/>samples = 28<br/>value = [28, 0]>, fillcolor="#e58139"] ;
283 -> 333 ;
334 [label=<x<SUB>1</SUB> &le; 0.367<br/>gini = 0.42<br/>samples = 20<br/>value = [14, 6]>, fillcolor="#f0b78e"] ;
282 -> 334 ;
335 [label=<gini = 0.0<br/>samples = 3<br/>value = [0, 3]>, fillcolor="#399de5"] ;
334 -> 335 ;
336 [label=<x<SUB>8</SUB> &le; -0.191<br/>gini = 0.291<br/>samples = 17<br/>value = [14, 3]>, fillcolor="#eb9c63"] ;
334 -> 336 ;
337 [label=<x<SUB>3</SUB> &le; -0.25<br/>gini = 0.133<br/>samples = 14<br/>value = [13, 1]>, fillcolor="#e78b48"] ;
336 -> 337 ;
338 [label=<gini = 0.0<br/>samples = 1<br/>value = [0, 1]>, fillcolor="#399de5"] ;
337 -> 338 ;
339 [label=<gini = 0.0<br/>samples = 13<br/>value = [13, 0]>, fillcolor="#e58139"] ;
337 -> 339 ;
340 [label=<x<SUB>22</SUB> &le; -0.081<br/>gini = 0.444<br/>samples = 3<br/>value = [1, 2]>, fillcolor="#9ccef2"] ;
336 -> 340 ;
341 [label=<gini = 0.0<br/>samples = 1<br/>value = [0, 1]>, fillcolor="#399de5"] ;
340 -> 341 ;
342 [label=<x<SUB>22</SUB> &le; 0.289<br/>gini = 0.5<br/>samples = 2<br/>value = [1, 1]>, fillcolor="#ffffff"] ;
340 -> 342 ;
343 [label=<gini = 0.0<br/>samples = 1<br/>value = [1, 0]>, fillcolor="#e58139"] ;
342 -> 343 ;
344 [label=<gini = 0.0<br/>samples = 1<br/>value = [0, 1]>, fillcolor="#399de5"] ;
342 -> 344 ;
345 [label=<gini = 0.0<br/>samples = 40<br/>value = [40, 0]>, fillcolor="#e58139"] ;
281 -> 345 ;
346 [label=<x<SUB>3</SUB> &le; 0.0<br/>gini = 0.5<br/>samples = 4<br/>value = [2, 2]>, fillcolor="#ffffff"] ;
280 -> 346 ;
347 [label=<gini = 0.0<br/>samples = 1<br/>value = [1, 0]>, fillcolor="#e58139"] ;
346 -> 347 ;
348 [label=<x<SUB>15</SUB> &le; 0.5<br/>gini = 0.444<br/>samples = 3<br/>value = [1, 2]>, fillcolor="#9ccef2"] ;
346 -> 348 ;
349 [label=<gini = 0.0<br/>samples = 1<br/>value = [1, 0]>, fillcolor="#e58139"] ;
348 -> 349 ;
350 [label=<gini = 0.0<br/>samples = 2<br/>value = [0, 2]>, fillcolor="#399de5"] ;
348 -> 350 ;
351 [label=<gini = 0.0<br/>samples = 1<br/>value = [0, 1]>, fillcolor="#399de5"] ;
279 -> 351 ;
352 [label=<x<SUB>22</SUB> &le; -0.1<br/>gini = 0.032<br/>samples = 62<br/>value = [61, 1]>, fillcolor="#e5833c"] ;
278 -> 352 ;
353 [label=<x<SUB>22</SUB> &le; -0.132<br/>gini = 0.198<br/>samples = 9<br/>value = [8, 1]>, fillcolor="#e89152"] ;
352 -> 353 ;
354 [label=<gini = 0.0<br/>samples = 8<br/>value = [8, 0]>, fillcolor="#e58139"] ;
353 -> 354 ;
355 [label=<gini = 0.0<br/>samples = 1<br/>value = [0, 1]>, fillcolor="#399de5"] ;
353 -> 355 ;
356 [label=<gini = 0.0<br/>samples = 53<br/>value = [53, 0]>, fillcolor="#e58139"] ;
352 -> 356 ;
357 [label=<x<SUB>22</SUB> &le; 1.034<br/>gini = 0.333<br/>samples = 218<br/>value = [172, 46]>, fillcolor="#eca36e"] ;
217 -> 357 ;
358 [label=<x<SUB>8</SUB> &le; -0.285<br/>gini = 0.411<br/>samples = 97<br/>value = [69, 28]>, fillcolor="#f0b489"] ;
357 -> 358 ;
359 [label=<x<SUB>1</SUB> &le; 0.217<br/>gini = 0.482<br/>samples = 47<br/>value = [28, 19]>, fillcolor="#f7d7bf"] ;
358 -> 359 ;
360 [label=<x<SUB>1</SUB> &le; 0.143<br/>gini = 0.5<br/>samples = 37<br/>value = [19, 18]>, fillcolor="#fef8f5"] ;
359 -> 360 ;
361 [label=<x<SUB>22</SUB> &le; 1.015<br/>gini = 0.489<br/>samples = 33<br/>value = [19, 14]>, fillcolor="#f8decb"] ;
360 -> 361 ;
362 [label=<x<SUB>22</SUB> &le; 0.895<br/>gini = 0.475<br/>samples = 31<br/>value = [19, 12]>, fillcolor="#f5d1b6"] ;
361 -> 362 ;
363 [label=<x<SUB>3</SUB> &le; -0.25<br/>gini = 0.497<br/>samples = 26<br/>value = [14, 12]>, fillcolor="#fbede3"] ;
362 -> 363 ;
364 [label=<x<SUB>8</SUB> &le; -0.306<br/>gini = 0.408<br/>samples = 7<br/>value = [2, 5]>, fillcolor="#88c4ef"] ;
363 -> 364 ;
365 [label=<gini = 0.0<br/>samples = 5<br/>value = [0, 5]>, fillcolor="#399de5"] ;
364 -> 365 ;
366 [label=<gini = 0.0<br/>samples = 2<br/>value = [2, 0]>, fillcolor="#e58139"] ;
364 -> 366 ;
367 [label=<x<SUB>8</SUB> &le; -0.32<br/>gini = 0.465<br/>samples = 19<br/>value = [12, 7]>, fillcolor="#f4caac"] ;
363 -> 367 ;
368 [label=<x<SUB>16</SUB> &le; 1.5<br/>gini = 0.198<br/>samples = 9<br/>value = [8, 1]>, fillcolor="#e89152"] ;
367 -> 368 ;
369 [label=<gini = 0.0<br/>samples = 8<br/>value = [8, 0]>, fillcolor="#e58139"] ;
368 -> 369 ;
370 [label=<gini = 0.0<br/>samples = 1<br/>value = [0, 1]>, fillcolor="#399de5"] ;
368 -> 370 ;
371 [label=<x<SUB>22</SUB> &le; 0.675<br/>gini = 0.48<br/>samples = 10<br/>value = [4, 6]>, fillcolor="#bddef6"] ;
367 -> 371 ;
372 [label=<x<SUB>8</SUB> &le; -0.306<br/>gini = 0.49<br/>samples = 7<br/>value = [4, 3]>, fillcolor="#f8e0ce"] ;
371 -> 372 ;
373 [label=<gini = 0.0<br/>samples = 1<br/>value = [0, 1]>, fillcolor="#399de5"] ;
372 -> 373 ;
374 [label=<x<SUB>1</SUB> &le; -0.15<br/>gini = 0.444<br/>samples = 6<br/>value = [4, 2]>, fillcolor="#f2c09c"] ;
372 -> 374 ;
375 [label=<gini = 0.0<br/>samples = 1<br/>value = [0, 1]>, fillcolor="#399de5"] ;
374 -> 375 ;
376 [label=<x<SUB>3</SUB> &le; 0.75<br/>gini = 0.32<br/>samples = 5<br/>value = [4, 1]>, fillcolor="#eca06a"] ;
374 -> 376 ;
377 [label=<x<SUB>22</SUB> &le; 0.566<br/>gini = 0.444<br/>samples = 3<br/>value = [2, 1]>, fillcolor="#f2c09c"] ;
376 -> 377 ;
378 [label=<x<SUB>3</SUB> &le; 0.25<br/>gini = 0.5<br/>samples = 2<br/>value = [1, 1]>, fillcolor="#ffffff"] ;
377 -> 378 ;
379 [label=<gini = 0.0<br/>samples = 1<br/>value = [1, 0]>, fillcolor="#e58139"] ;
378 -> 379 ;
380 [label=<gini = 0.0<br/>samples = 1<br/>value = [0, 1]>, fillcolor="#399de5"] ;
378 -> 380 ;
381 [label=<gini = 0.0<br/>samples = 1<br/>value = [1, 0]>, fillcolor="#e58139"] ;
377 -> 381 ;
382 [label=<gini = 0.0<br/>samples = 2<br/>value = [2, 0]>, fillcolor="#e58139"] ;
376 -> 382 ;
383 [label=<gini = 0.0<br/>samples = 3<br/>value = [0, 3]>, fillcolor="#399de5"] ;
371 -> 383 ;
384 [label=<gini = 0.0<br/>samples = 5<br/>value = [5, 0]>, fillcolor="#e58139"] ;
362 -> 384 ;
385 [label=<gini = 0.0<br/>samples = 2<br/>value = [0, 2]>, fillcolor="#399de5"] ;
361 -> 385 ;
386 [label=<gini = 0.0<br/>samples = 4<br/>value = [0, 4]>, fillcolor="#399de5"] ;
360 -> 386 ;
387 [label=<x<SUB>1</SUB> &le; 0.794<br/>gini = 0.18<br/>samples = 10<br/>value = [9, 1]>, fillcolor="#e88f4f"] ;
359 -> 387 ;
388 [label=<gini = 0.0<br/>samples = 9<br/>value = [9, 0]>, fillcolor="#e58139"] ;
387 -> 388 ;
389 [label=<gini = 0.0<br/>samples = 1<br/>value = [0, 1]>, fillcolor="#399de5"] ;
387 -> 389 ;
390 [label=<x<SUB>22</SUB> &le; 0.924<br/>gini = 0.295<br/>samples = 50<br/>value = [41, 9]>, fillcolor="#eb9d64"] ;
358 -> 390 ;
391 [label=<x<SUB>22</SUB> &le; 0.611<br/>gini = 0.236<br/>samples = 44<br/>value = [38, 6]>, fillcolor="#e99558"] ;
390 -> 391 ;
392 [label=<gini = 0.0<br/>samples = 13<br/>value = [13, 0]>, fillcolor="#e58139"] ;
391 -> 392 ;
393 [label=<x<SUB>2</SUB> &le; -0.25<br/>gini = 0.312<br/>samples = 31<br/>value = [25, 6]>, fillcolor="#eb9f69"] ;
391 -> 393 ;
394 [label=<x<SUB>14</SUB> &le; 1.167<br/>gini = 0.49<br/>samples = 7<br/>value = [4, 3]>, fillcolor="#f8e0ce"] ;
393 -> 394 ;
395 [label=<x<SUB>7</SUB> &le; 1.5<br/>gini = 0.32<br/>samples = 5<br/>value = [4, 1]>, fillcolor="#eca06a"] ;
394 -> 395 ;
396 [label=<gini = 0.0<br/>samples = 4<br/>value = [4, 0]>, fillcolor="#e58139"] ;
395 -> 396 ;
397 [label=<gini = 0.0<br/>samples = 1<br/>value = [0, 1]>, fillcolor="#399de5"] ;
395 -> 397 ;
398 [label=<gini = 0.0<br/>samples = 2<br/>value = [0, 2]>, fillcolor="#399de5"] ;
394 -> 398 ;
399 [label=<x<SUB>1</SUB> &le; 0.213<br/>gini = 0.219<br/>samples = 24<br/>value = [21, 3]>, fillcolor="#e99355"] ;
393 -> 399 ;
400 [label=<gini = 0.0<br/>samples = 15<br/>value = [15, 0]>, fillcolor="#e58139"] ;
399 -> 400 ;
401 [label=<x<SUB>1</SUB> &le; 0.322<br/>gini = 0.444<br/>samples = 9<br/>value = [6, 3]>, fillcolor="#f2c09c"] ;
399 -> 401 ;
402 [label=<gini = 0.0<br/>samples = 2<br/>value = [0, 2]>, fillcolor="#399de5"] ;
401 -> 402 ;
403 [label=<x<SUB>1</SUB> &le; 0.769<br/>gini = 0.245<br/>samples = 7<br/>value = [6, 1]>, fillcolor="#e9965a"] ;
401 -> 403 ;
404 [label=<gini = 0.0<br/>samples = 5<br/>value = [5, 0]>, fillcolor="#e58139"] ;
403 -> 404 ;
405 [label=<x<SUB>7</SUB> &le; 1.0<br/>gini = 0.5<br/>samples = 2<br/>value = [1, 1]>, fillcolor="#ffffff"] ;
403 -> 405 ;
406 [label=<gini = 0.0<br/>samples = 1<br/>value = [0, 1]>, fillcolor="#399de5"] ;
405 -> 406 ;
407 [label=<gini = 0.0<br/>samples = 1<br/>value = [1, 0]>, fillcolor="#e58139"] ;
405 -> 407 ;
408 [label=<x<SUB>8</SUB> &le; -0.191<br/>gini = 0.5<br/>samples = 6<br/>value = [3, 3]>, fillcolor="#ffffff"] ;
390 -> 408 ;
409 [label=<x<SUB>22</SUB> &le; 0.963<br/>gini = 0.375<br/>samples = 4<br/>value = [3, 1]>, fillcolor="#eeab7b"] ;
408 -> 409 ;
410 [label=<gini = 0.0<br/>samples = 1<br/>value = [0, 1]>, fillcolor="#399de5"] ;
409 -> 410 ;
411 [label=<gini = 0.0<br/>samples = 3<br/>value = [3, 0]>, fillcolor="#e58139"] ;
409 -> 411 ;
412 [label=<gini = 0.0<br/>samples = 2<br/>value = [0, 2]>, fillcolor="#399de5"] ;
408 -> 412 ;
413 [label=<x<SUB>22</SUB> &le; 1.702<br/>gini = 0.253<br/>samples = 121<br/>value = [103, 18]>, fillcolor="#ea975c"] ;
357 -> 413 ;
414 [label=<x<SUB>1</SUB> &le; -0.339<br/>gini = 0.169<br/>samples = 75<br/>value = [68, 7]>, fillcolor="#e88e4d"] ;
413 -> 414 ;
415 [label=<x<SUB>1</SUB> &le; -0.346<br/>gini = 0.48<br/>samples = 5<br/>value = [3, 2]>, fillcolor="#f6d5bd"] ;
414 -> 415 ;
416 [label=<gini = 0.0<br/>samples = 2<br/>value = [2, 0]>, fillcolor="#e58139"] ;
415 -> 416 ;
417 [label=<x<SUB>5</SUB> &le; 0.5<br/>gini = 0.444<br/>samples = 3<br/>value = [1, 2]>, fillcolor="#9ccef2"] ;
415 -> 417 ;
418 [label=<gini = 0.0<br/>samples = 2<br/>value = [0, 2]>, fillcolor="#399de5"] ;
417 -> 418 ;
419 [label=<gini = 0.0<br/>samples = 1<br/>value = [1, 0]>, fillcolor="#e58139"] ;
417 -> 419 ;
420 [label=<x<SUB>14</SUB> &le; 1.833<br/>gini = 0.133<br/>samples = 70<br/>value = [65, 5]>, fillcolor="#e78b48"] ;
414 -> 420 ;
421 [label=<x<SUB>22</SUB> &le; 1.109<br/>gini = 0.088<br/>samples = 65<br/>value = [62, 3]>, fillcolor="#e68743"] ;
420 -> 421 ;
422 [label=<x<SUB>22</SUB> &le; 1.096<br/>gini = 0.32<br/>samples = 10<br/>value = [8, 2]>, fillcolor="#eca06a"] ;
421 -> 422 ;
423 [label=<x<SUB>1</SUB> &le; 0.626<br/>gini = 0.198<br/>samples = 9<br/>value = [8, 1]>, fillcolor="#e89152"] ;
422 -> 423 ;
424 [label=<gini = 0.0<br/>samples = 7<br/>value = [7, 0]>, fillcolor="#e58139"] ;
423 -> 424 ;
425 [label=<x<SUB>8</SUB> &le; -0.211<br/>gini = 0.5<br/>samples = 2<br/>value = [1, 1]>, fillcolor="#ffffff"] ;
423 -> 425 ;
426 [label=<gini = 0.0<br/>samples = 1<br/>value = [0, 1]>, fillcolor="#399de5"] ;
425 -> 426 ;
427 [label=<gini = 0.0<br/>samples = 1<br/>value = [1, 0]>, fillcolor="#e58139"] ;
425 -> 427 ;
428 [label=<gini = 0.0<br/>samples = 1<br/>value = [0, 1]>, fillcolor="#399de5"] ;
422 -> 428 ;
429 [label=<x<SUB>2</SUB> &le; 1.25<br/>gini = 0.036<br/>samples = 55<br/>value = [54, 1]>, fillcolor="#e5833d"] ;
421 -> 429 ;
430 [label=<gini = 0.0<br/>samples = 54<br/>value = [54, 0]>, fillcolor="#e58139"] ;
429 -> 430 ;
431 [label=<gini = 0.0<br/>samples = 1<br/>value = [0, 1]>, fillcolor="#399de5"] ;
429 -> 431 ;
432 [label=<x<SUB>1</SUB> &le; -0.063<br/>gini = 0.48<br/>samples = 5<br/>value = [3, 2]>, fillcolor="#f6d5bd"] ;
420 -> 432 ;
433 [label=<gini = 0.0<br/>samples = 2<br/>value = [0, 2]>, fillcolor="#399de5"] ;
432 -> 433 ;
434 [label=<gini = 0.0<br/>samples = 3<br/>value = [3, 0]>, fillcolor="#e58139"] ;
432 -> 434 ;
435 [label=<x<SUB>22</SUB> &le; 1.773<br/>gini = 0.364<br/>samples = 46<br/>value = [35, 11]>, fillcolor="#eda977"] ;
413 -> 435 ;
436 [label=<gini = 0.0<br/>samples = 2<br/>value = [0, 2]>, fillcolor="#399de5"] ;
435 -> 436 ;
437 [label=<x<SUB>15</SUB> &le; 1.167<br/>gini = 0.325<br/>samples = 44<br/>value = [35, 9]>, fillcolor="#eca16c"] ;
435 -> 437 ;
438 [label=<x<SUB>3</SUB> &le; 2.5<br/>gini = 0.48<br/>samples = 5<br/>value = [2, 3]>, fillcolor="#bddef6"] ;
437 -> 438 ;
439 [label=<gini = 0.0<br/>samples = 3<br/>value = [0, 3]>, fillcolor="#399de5"] ;
438 -> 439 ;
440 [label=<gini = 0.0<br/>samples = 2<br/>value = [2, 0]>, fillcolor="#e58139"] ;
438 -> 440 ;
441 [label=<x<SUB>1</SUB> &le; -0.234<br/>gini = 0.26<br/>samples = 39<br/>value = [33, 6]>, fillcolor="#ea985d"] ;
437 -> 441 ;
442 [label=<x<SUB>22</SUB> &le; 2.438<br/>gini = 0.42<br/>samples = 10<br/>value = [7, 3]>, fillcolor="#f0b78e"] ;
441 -> 442 ;
443 [label=<x<SUB>22</SUB> &le; 1.895<br/>gini = 0.48<br/>samples = 5<br/>value = [2, 3]>, fillcolor="#bddef6"] ;
442 -> 443 ;
444 [label=<gini = 0.0<br/>samples = 2<br/>value = [2, 0]>, fillcolor="#e58139"] ;
443 -> 444 ;
445 [label=<gini = 0.0<br/>samples = 3<br/>value = [0, 3]>, fillcolor="#399de5"] ;
443 -> 445 ;
446 [label=<gini = 0.0<br/>samples = 5<br/>value = [5, 0]>, fillcolor="#e58139"] ;
442 -> 446 ;
447 [label=<x<SUB>22</SUB> &le; 2.421<br/>gini = 0.185<br/>samples = 29<br/>value = [26, 3]>, fillcolor="#e89050"] ;
441 -> 447 ;
448 [label=<gini = 0.0<br/>samples = 17<br/>value = [17, 0]>, fillcolor="#e58139"] ;
447 -> 448 ;
449 [label=<x<SUB>22</SUB> &le; 3.018<br/>gini = 0.375<br/>samples = 12<br/>value = [9, 3]>, fillcolor="#eeab7b"] ;
447 -> 449 ;
450 [label=<x<SUB>1</SUB> &le; 0.364<br/>gini = 0.5<br/>samples = 6<br/>value = [3, 3]>, fillcolor="#ffffff"] ;
449 -> 450 ;
451 [label=<x<SUB>1</SUB> &le; -0.01<br/>gini = 0.375<br/>samples = 4<br/>value = [3, 1]>, fillcolor="#eeab7b"] ;
450 -> 451 ;
452 [label=<gini = 0.0<br/>samples = 1<br/>value = [0, 1]>, fillcolor="#399de5"] ;
451 -> 452 ;
453 [label=<gini = 0.0<br/>samples = 3<br/>value = [3, 0]>, fillcolor="#e58139"] ;
451 -> 453 ;
454 [label=<gini = 0.0<br/>samples = 2<br/>value = [0, 2]>, fillcolor="#399de5"] ;
450 -> 454 ;
455 [label=<gini = 0.0<br/>samples = 6<br/>value = [6, 0]>, fillcolor="#e58139"] ;
449 -> 455 ;
456 [label=<x<SUB>22</SUB> &le; 1.645<br/>gini = 0.413<br/>samples = 79<br/>value = [56, 23]>, fillcolor="#f0b58a"] ;
216 -> 456 ;
457 [label=<x<SUB>3</SUB> &le; -0.25<br/>gini = 0.397<br/>samples = 77<br/>value = [56, 21]>, fillcolor="#efb083"] ;
456 -> 457 ;
458 [label=<gini = 0.0<br/>samples = 8<br/>value = [8, 0]>, fillcolor="#e58139"] ;
457 -> 458 ;
459 [label=<x<SUB>1</SUB> &le; 1.063<br/>gini = 0.423<br/>samples = 69<br/>value = [48, 21]>, fillcolor="#f0b890"] ;
457 -> 459 ;
460 [label=<x<SUB>2</SUB> &le; 0.75<br/>gini = 0.5<br/>samples = 20<br/>value = [10, 10]>, fillcolor="#ffffff"] ;
459 -> 460 ;
461 [label=<x<SUB>14</SUB> &le; 0.167<br/>gini = 0.484<br/>samples = 17<br/>value = [10, 7]>, fillcolor="#f7d9c4"] ;
460 -> 461 ;
462 [label=<x<SUB>5</SUB> &le; 0.5<br/>gini = 0.219<br/>samples = 8<br/>value = [7, 1]>, fillcolor="#e99355"] ;
461 -> 462 ;
463 [label=<gini = 0.0<br/>samples = 7<br/>value = [7, 0]>, fillcolor="#e58139"] ;
462 -> 463 ;
464 [label=<gini = 0.0<br/>samples = 1<br/>value = [0, 1]>, fillcolor="#399de5"] ;
462 -> 464 ;
465 [label=<x<SUB>15</SUB> &le; 1.5<br/>gini = 0.444<br/>samples = 9<br/>value = [3, 6]>, fillcolor="#9ccef2"] ;
461 -> 465 ;
466 [label=<gini = 0.0<br/>samples = 6<br/>value = [0, 6]>, fillcolor="#399de5"] ;
465 -> 466 ;
467 [label=<gini = 0.0<br/>samples = 3<br/>value = [3, 0]>, fillcolor="#e58139"] ;
465 -> 467 ;
468 [label=<gini = 0.0<br/>samples = 3<br/>value = [0, 3]>, fillcolor="#399de5"] ;
460 -> 468 ;
469 [label=<x<SUB>1</SUB> &le; 1.685<br/>gini = 0.348<br/>samples = 49<br/>value = [38, 11]>, fillcolor="#eda572"] ;
459 -> 469 ;
470 [label=<x<SUB>1</SUB> &le; 1.325<br/>gini = 0.266<br/>samples = 38<br/>value = [32, 6]>, fillcolor="#ea995e"] ;
469 -> 470 ;
471 [label=<x<SUB>1</SUB> &le; 1.199<br/>gini = 0.375<br/>samples = 20<br/>value = [15, 5]>, fillcolor="#eeab7b"] ;
470 -> 471 ;
472 [label=<gini = 0.0<br/>samples = 10<br/>value = [10, 0]>, fillcolor="#e58139"] ;
471 -> 472 ;
473 [label=<x<SUB>22</SUB> &le; -0.576<br/>gini = 0.5<br/>samples = 10<br/>value = [5, 5]>, fillcolor="#ffffff"] ;
471 -> 473 ;
474 [label=<gini = 0.0<br/>samples = 2<br/>value = [2, 0]>, fillcolor="#e58139"] ;
473 -> 474 ;
475 [label=<x<SUB>8</SUB> &le; -0.278<br/>gini = 0.469<br/>samples = 8<br/>value = [3, 5]>, fillcolor="#b0d8f5"] ;
473 -> 475 ;
476 [label=<x<SUB>1</SUB> &le; 1.301<br/>gini = 0.375<br/>samples = 4<br/>value = [3, 1]>, fillcolor="#eeab7b"] ;
475 -> 476 ;
477 [label=<gini = 0.0<br/>samples = 3<br/>value = [3, 0]>, fillcolor="#e58139"] ;
476 -> 477 ;
478 [label=<gini = 0.0<br/>samples = 1<br/>value = [0, 1]>, fillcolor="#399de5"] ;
476 -> 478 ;
479 [label=<gini = 0.0<br/>samples = 4<br/>value = [0, 4]>, fillcolor="#399de5"] ;
475 -> 479 ;
480 [label=<x<SUB>8</SUB> &le; -0.32<br/>gini = 0.105<br/>samples = 18<br/>value = [17, 1]>, fillcolor="#e78845"] ;
470 -> 480 ;
481 [label=<x<SUB>8</SUB> &le; -0.346<br/>gini = 0.278<br/>samples = 6<br/>value = [5, 1]>, fillcolor="#ea9a61"] ;
480 -> 481 ;
482 [label=<gini = 0.0<br/>samples = 3<br/>value = [3, 0]>, fillcolor="#e58139"] ;
481 -> 482 ;
483 [label=<x<SUB>22</SUB> &le; 0.196<br/>gini = 0.444<br/>samples = 3<br/>value = [2, 1]>, fillcolor="#f2c09c"] ;
481 -> 483 ;
484 [label=<gini = 0.0<br/>samples = 1<br/>value = [0, 1]>, fillcolor="#399de5"] ;
483 -> 484 ;
485 [label=<gini = 0.0<br/>samples = 2<br/>value = [2, 0]>, fillcolor="#e58139"] ;
483 -> 485 ;
486 [label=<gini = 0.0<br/>samples = 12<br/>value = [12, 0]>, fillcolor="#e58139"] ;
480 -> 486 ;
487 [label=<x<SUB>1</SUB> &le; 1.713<br/>gini = 0.496<br/>samples = 11<br/>value = [6, 5]>, fillcolor="#fbeade"] ;
469 -> 487 ;
488 [label=<gini = 0.0<br/>samples = 5<br/>value = [0, 5]>, fillcolor="#399de5"] ;
487 -> 488 ;
489 [label=<gini = 0.0<br/>samples = 6<br/>value = [6, 0]>, fillcolor="#e58139"] ;
487 -> 489 ;
490 [label=<gini = 0.0<br/>samples = 2<br/>value = [0, 2]>, fillcolor="#399de5"] ;
456 -> 490 ;
491 [label=<x<SUB>3</SUB> &le; 1.75<br/>gini = 0.212<br/>samples = 481<br/>value = [423, 58]>, fillcolor="#e99254"] ;
215 -> 491 ;
492 [label=<x<SUB>1</SUB> &le; -0.192<br/>gini = 0.225<br/>samples = 448<br/>value = [390, 58]>, fillcolor="#e99456"] ;
491 -> 492 ;
493 [label=<x<SUB>2</SUB> &le; -0.25<br/>gini = 0.101<br/>samples = 75<br/>value = [71, 4]>, fillcolor="#e68844"] ;
492 -> 493 ;
494 [label=<x<SUB>22</SUB> &le; 0.953<br/>gini = 0.219<br/>samples = 24<br/>value = [21, 3]>, fillcolor="#e99355"] ;
493 -> 494 ;
495 [label=<x<SUB>22</SUB> &le; 0.845<br/>gini = 0.291<br/>samples = 17<br/>value = [14, 3]>, fillcolor="#eb9c63"] ;
494 -> 495 ;
496 [label=<x<SUB>3</SUB> &le; 0.75<br/>gini = 0.124<br/>samples = 15<br/>value = [14, 1]>, fillcolor="#e78a47"] ;
495 -> 496 ;
497 [label=<gini = 0.0<br/>samples = 10<br/>value = [10, 0]>, fillcolor="#e58139"] ;
496 -> 497 ;
498 [label=<x<SUB>15</SUB> &le; 0.5<br/>gini = 0.32<br/>samples = 5<br/>value = [4, 1]>, fillcolor="#eca06a"] ;
496 -> 498 ;
499 [label=<x<SUB>22</SUB> &le; -0.162<br/>gini = 0.5<br/>samples = 2<br/>value = [1, 1]>, fillcolor="#ffffff"] ;
498 -> 499 ;
500 [label=<gini = 0.0<br/>samples = 1<br/>value = [1, 0]>, fillcolor="#e58139"] ;
499 -> 500 ;
501 [label=<gini = 0.0<br/>samples = 1<br/>value = [0, 1]>, fillcolor="#399de5"] ;
499 -> 501 ;
502 [label=<gini = 0.0<br/>samples = 3<br/>value = [3, 0]>, fillcolor="#e58139"] ;
498 -> 502 ;
503 [label=<gini = 0.0<br/>samples = 2<br/>value = [0, 2]>, fillcolor="#399de5"] ;
495 -> 503 ;
504 [label=<gini = 0.0<br/>samples = 7<br/>value = [7, 0]>, fillcolor="#e58139"] ;
494 -> 504 ;
505 [label=<x<SUB>15</SUB> &le; 1.5<br/>gini = 0.038<br/>samples = 51<br/>value = [50, 1]>, fillcolor="#e6843d"] ;
493 -> 505 ;
506 [label=<gini = 0.0<br/>samples = 41<br/>value = [41, 0]>, fillcolor="#e58139"] ;
505 -> 506 ;
507 [label=<x<SUB>22</SUB> &le; -0.205<br/>gini = 0.18<br/>samples = 10<br/>value = [9, 1]>, fillcolor="#e88f4f"] ;
505 -> 507 ;
508 [label=<x<SUB>15</SUB> &le; 1.833<br/>gini = 0.5<br/>samples = 2<br/>value = [1, 1]>, fillcolor="#ffffff"] ;
507 -> 508 ;
509 [label=<gini = 0.0<br/>samples = 1<br/>value = [0, 1]>, fillcolor="#399de5"] ;
508 -> 509 ;
510 [label=<gini = 0.0<br/>samples = 1<br/>value = [1, 0]>, fillcolor="#e58139"] ;
508 -> 510 ;
511 [label=<gini = 0.0<br/>samples = 8<br/>value = [8, 0]>, fillcolor="#e58139"] ;
507 -> 511 ;
512 [label=<x<SUB>22</SUB> &le; 3.737<br/>gini = 0.248<br/>samples = 373<br/>value = [319, 54]>, fillcolor="#e9965b"] ;
492 -> 512 ;
513 [label=<x<SUB>14</SUB> &le; 1.5<br/>gini = 0.244<br/>samples = 372<br/>value = [319, 53]>, fillcolor="#e9965a"] ;
512 -> 513 ;
514 [label=<x<SUB>22</SUB> &le; 2.126<br/>gini = 0.259<br/>samples = 333<br/>value = [282, 51]>, fillcolor="#ea985d"] ;
513 -> 514 ;
515 [label=<x<SUB>3</SUB> &le; 1.25<br/>gini = 0.256<br/>samples = 332<br/>value = [282, 50]>, fillcolor="#ea975c"] ;
514 -> 515 ;
516 [label=<x<SUB>1</SUB> &le; 0.675<br/>gini = 0.231<br/>samples = 270<br/>value = [234, 36]>, fillcolor="#e99457"] ;
515 -> 516 ;
517 [label=<x<SUB>24</SUB> &le; 1.5<br/>gini = 0.262<br/>samples = 206<br/>value = [174, 32]>, fillcolor="#ea985d"] ;
516 -> 517 ;
518 [label=<x<SUB>22</SUB> &le; -0.267<br/>gini = 0.213<br/>samples = 140<br/>value = [123, 17]>, fillcolor="#e99254"] ;
517 -> 518 ;
519 [label=<gini = 0.0<br/>samples = 24<br/>value = [24, 0]>, fillcolor="#e58139"] ;
518 -> 519 ;
520 [label=<x<SUB>1</SUB> &le; -0.185<br/>gini = 0.25<br/>samples = 116<br/>value = [99, 17]>, fillcolor="#e9975b"] ;
518 -> 520 ;
521 [label=<gini = 0.0<br/>samples = 1<br/>value = [0, 1]>, fillcolor="#399de5"] ;
520 -> 521 ;
522 [label=<x<SUB>22</SUB> &le; -0.254<br/>gini = 0.24<br/>samples = 115<br/>value = [99, 16]>, fillcolor="#e99559"] ;
520 -> 522 ;
523 [label=<gini = 0.0<br/>samples = 1<br/>value = [0, 1]>, fillcolor="#399de5"] ;
522 -> 523 ;
524 [label=<x<SUB>6</SUB> &le; 0.5<br/>gini = 0.229<br/>samples = 114<br/>value = [99, 15]>, fillcolor="#e99457"] ;
522 -> 524 ;
525 [label=<x<SUB>22</SUB> &le; 0.487<br/>gini = 0.217<br/>samples = 113<br/>value = [99, 14]>, fillcolor="#e99355"] ;
524 -> 525 ;
526 [label=<x<SUB>8</SUB> &le; -0.264<br/>gini = 0.281<br/>samples = 71<br/>value = [59, 12]>, fillcolor="#ea9b61"] ;
525 -> 526 ;
527 [label=<x<SUB>22</SUB> &le; 0.387<br/>gini = 0.18<br/>samples = 40<br/>value = [36, 4]>, fillcolor="#e88f4f"] ;
526 -> 527 ;
528 [label=<x<SUB>3</SUB> &le; 0.75<br/>gini = 0.111<br/>samples = 34<br/>value = [32, 2]>, fillcolor="#e78945"] ;
527 -> 528 ;
529 [label=<x<SUB>1</SUB> &le; 0.108<br/>gini = 0.062<br/>samples = 31<br/>value = [30, 1]>, fillcolor="#e68540"] ;
528 -> 529 ;
530 [label=<x<SUB>1</SUB> &le; 0.042<br/>gini = 0.18<br/>samples = 10<br/>value = [9, 1]>, fillcolor="#e88f4f"] ;
529 -> 530 ;
531 [label=<gini = 0.0<br/>samples = 9<br/>value = [9, 0]>, fillcolor="#e58139"] ;
530 -> 531 ;
532 [label=<gini = 0.0<br/>samples = 1<br/>value = [0, 1]>, fillcolor="#399de5"] ;
530 -> 532 ;
533 [label=<gini = 0.0<br/>samples = 21<br/>value = [21, 0]>, fillcolor="#e58139"] ;
529 -> 533 ;
534 [label=<x<SUB>8</SUB> &le; -0.306<br/>gini = 0.444<br/>samples = 3<br/>value = [2, 1]>, fillcolor="#f2c09c"] ;
528 -> 534 ;
535 [label=<gini = 0.0<br/>samples = 1<br/>value = [0, 1]>, fillcolor="#399de5"] ;
534 -> 535 ;
536 [label=<gini = 0.0<br/>samples = 2<br/>value = [2, 0]>, fillcolor="#e58139"] ;
534 -> 536 ;
537 [label=<x<SUB>3</SUB> &le; 0.25<br/>gini = 0.444<br/>samples = 6<br/>value = [4, 2]>, fillcolor="#f2c09c"] ;
527 -> 537 ;
538 [label=<x<SUB>1</SUB> &le; -0.052<br/>gini = 0.444<br/>samples = 3<br/>value = [1, 2]>, fillcolor="#9ccef2"] ;
537 -> 538 ;
539 [label=<gini = 0.0<br/>samples = 1<br/>value = [1, 0]>, fillcolor="#e58139"] ;
538 -> 539 ;
540 [label=<gini = 0.0<br/>samples = 2<br/>value = [0, 2]>, fillcolor="#399de5"] ;
538 -> 540 ;
541 [label=<gini = 0.0<br/>samples = 3<br/>value = [3, 0]>, fillcolor="#e58139"] ;
537 -> 541 ;
542 [label=<x<SUB>2</SUB> &le; -0.25<br/>gini = 0.383<br/>samples = 31<br/>value = [23, 8]>, fillcolor="#eead7e"] ;
526 -> 542 ;
543 [label=<gini = 0.0<br/>samples = 7<br/>value = [7, 0]>, fillcolor="#e58139"] ;
542 -> 543 ;
544 [label=<x<SUB>18</SUB> &le; -1.324<br/>gini = 0.444<br/>samples = 24<br/>value = [16, 8]>, fillcolor="#f2c09c"] ;
542 -> 544 ;
545 [label=<x<SUB>22</SUB> &le; 0.23<br/>gini = 0.48<br/>samples = 20<br/>value = [12, 8]>, fillcolor="#f6d5bd"] ;
544 -> 545 ;
546 [label=<x<SUB>22</SUB> &le; -0.045<br/>gini = 0.43<br/>samples = 16<br/>value = [11, 5]>, fillcolor="#f1ba93"] ;
545 -> 546 ;
547 [label=<x<SUB>8</SUB> &le; -0.243<br/>gini = 0.48<br/>samples = 5<br/>value = [2, 3]>, fillcolor="#bddef6"] ;
546 -> 547 ;
548 [label=<gini = 0.0<br/>samples = 2<br/>value = [0, 2]>, fillcolor="#399de5"] ;
547 -> 548 ;
549 [label=<x<SUB>4</SUB> &le; -0.5<br/>gini = 0.444<br/>samples = 3<br/>value = [2, 1]>, fillcolor="#f2c09c"] ;
547 -> 549 ;
550 [label=<gini = 0.0<br/>samples = 1<br/>value = [1, 0]>, fillcolor="#e58139"] ;
549 -> 550 ;
551 [label=<x<SUB>15</SUB> &le; 0.167<br/>gini = 0.5<br/>samples = 2<br/>value = [1, 1]>, fillcolor="#ffffff"] ;
549 -> 551 ;
552 [label=<gini = 0.0<br/>samples = 1<br/>value = [0, 1]>, fillcolor="#399de5"] ;
551 -> 552 ;
553 [label=<gini = 0.0<br/>samples = 1<br/>value = [1, 0]>, fillcolor="#e58139"] ;
551 -> 553 ;
554 [label=<x<SUB>1</SUB> &le; 0.409<br/>gini = 0.298<br/>samples = 11<br/>value = [9, 2]>, fillcolor="#eb9d65"] ;
546 -> 554 ;
555 [label=<x<SUB>8</SUB> &le; -0.211<br/>gini = 0.198<br/>samples = 9<br/>value = [8, 1]>, fillcolor="#e89152"] ;
554 -> 555 ;
556 [label=<gini = 0.0<br/>samples = 7<br/>value = [7, 0]>, fillcolor="#e58139"] ;
555 -> 556 ;
557 [label=<x<SUB>1</SUB> &le; 0.297<br/>gini = 0.5<br/>samples = 2<br/>value = [1, 1]>, fillcolor="#ffffff"] ;
555 -> 557 ;
558 [label=<gini = 0.0<br/>samples = 1<br/>value = [0, 1]>, fillcolor="#399de5"] ;
557 -> 558 ;
559 [label=<gini = 0.0<br/>samples = 1<br/>value = [1, 0]>, fillcolor="#e58139"] ;
557 -> 559 ;
560 [label=<x<SUB>22</SUB> &le; 0.107<br/>gini = 0.5<br/>samples = 2<br/>value = [1, 1]>, fillcolor="#ffffff"] ;
554 -> 560 ;
561 [label=<gini = 0.0<br/>samples = 1<br/>value = [1, 0]>, fillcolor="#e58139"] ;
560 -> 561 ;
562 [label=<gini = 0.0<br/>samples = 1<br/>value = [0, 1]>, fillcolor="#399de5"] ;
560 -> 562 ;
563 [label=<x<SUB>1</SUB> &le; 0.175<br/>gini = 0.375<br/>samples = 4<br/>value = [1, 3]>, fillcolor="#7bbeee"] ;
545 -> 563 ;
564 [label=<gini = 0.0<br/>samples = 1<br/>value = [1, 0]>, fillcolor="#e58139"] ;
563 -> 564 ;
565 [label=<gini = 0.0<br/>samples = 3<br/>value = [0, 3]>, fillcolor="#399de5"] ;
563 -> 565 ;
566 [label=<gini = 0.0<br/>samples = 4<br/>value = [4, 0]>, fillcolor="#e58139"] ;
544 -> 566 ;
567 [label=<x<SUB>16</SUB> &le; 1.5<br/>gini = 0.091<br/>samples = 42<br/>value = [40, 2]>, fillcolor="#e68743"] ;
525 -> 567 ;
568 [label=<gini = 0.0<br/>samples = 37<br/>value = [37, 0]>, fillcolor="#e58139"] ;
567 -> 568 ;
569 [label=<x<SUB>1</SUB> &le; 0.007<br/>gini = 0.48<br/>samples = 5<br/>value = [3, 2]>, fillcolor="#f6d5bd"] ;
567 -> 569 ;
570 [label=<gini = 0.0<br/>samples = 2<br/>value = [0, 2]>, fillcolor="#399de5"] ;
569 -> 570 ;
571 [label=<gini = 0.0<br/>samples = 3<br/>value = [3, 0]>, fillcolor="#e58139"] ;
569 -> 571 ;
572 [label=<gini = 0.0<br/>samples = 1<br/>value = [0, 1]>, fillcolor="#399de5"] ;
524 -> 572 ;
573 [label=<x<SUB>1</SUB> &le; 0.409<br/>gini = 0.351<br/>samples = 66<br/>value = [51, 15]>, fillcolor="#eda673"] ;
517 -> 573 ;
574 [label=<x<SUB>1</SUB> &le; 0.003<br/>gini = 0.273<br/>samples = 49<br/>value = [41, 8]>, fillcolor="#ea9a60"] ;
573 -> 574 ;
575 [label=<x<SUB>1</SUB> &le; -0.007<br/>gini = 0.43<br/>samples = 16<br/>value = [11, 5]>, fillcolor="#f1ba93"] ;
574 -> 575 ;
576 [label=<x<SUB>2</SUB> &le; 0.25<br/>gini = 0.337<br/>samples = 14<br/>value = [11, 3]>, fillcolor="#eca36f"] ;
575 -> 576 ;
577 [label=<gini = 0.0<br/>samples = 9<br/>value = [9, 0]>, fillcolor="#e58139"] ;
576 -> 577 ;
578 [label=<x<SUB>1</SUB> &le; -0.15<br/>gini = 0.48<br/>samples = 5<br/>value = [2, 3]>, fillcolor="#bddef6"] ;
576 -> 578 ;
579 [label=<gini = 0.0<br/>samples = 2<br/>value = [0, 2]>, fillcolor="#399de5"] ;
578 -> 579 ;
580 [label=<x<SUB>1</SUB> &le; -0.087<br/>gini = 0.444<br/>samples = 3<br/>value = [2, 1]>, fillcolor="#f2c09c"] ;
578 -> 580 ;
581 [label=<gini = 0.0<br/>samples = 2<br/>value = [2, 0]>, fillcolor="#e58139"] ;
580 -> 581 ;
582 [label=<gini = 0.0<br/>samples = 1<br/>value = [0, 1]>, fillcolor="#399de5"] ;
580 -> 582 ;
583 [label=<gini = 0.0<br/>samples = 2<br/>value = [0, 2]>, fillcolor="#399de5"] ;
575 -> 583 ;
584 [label=<x<SUB>22</SUB> &le; 0.033<br/>gini = 0.165<br/>samples = 33<br/>value = [30, 3]>, fillcolor="#e88e4d"] ;
574 -> 584 ;
585 [label=<x<SUB>3</SUB> &le; 0.75<br/>gini = 0.355<br/>samples = 13<br/>value = [10, 3]>, fillcolor="#eda774"] ;
584 -> 585 ;
586 [label=<x<SUB>22</SUB> &le; 0.024<br/>gini = 0.278<br/>samples = 12<br/>value = [10, 2]>, fillcolor="#ea9a61"] ;
585 -> 586 ;
587 [label=<x<SUB>24</SUB> &le; 2.5<br/>gini = 0.165<br/>samples = 11<br/>value = [10, 1]>, fillcolor="#e88e4d"] ;
586 -> 587 ;
588 [label=<gini = 0.0<br/>samples = 6<br/>value = [6, 0]>, fillcolor="#e58139"] ;
587 -> 588 ;
589 [label=<x<SUB>3</SUB> &le; 0.25<br/>gini = 0.32<br/>samples = 5<br/>value = [4, 1]>, fillcolor="#eca06a"] ;
587 -> 589 ;
590 [label=<gini = 0.444<br/>samples = 3<br/>value = [2, 1]>, fillcolor="#f2c09c"] ;
589 -> 590 ;
591 [label=<gini = 0.0<br/>samples = 2<br/>value = [2, 0]>, fillcolor="#e58139"] ;
589 -> 591 ;
592 [label=<gini = 0.0<br/>samples = 1<br/>value = [0, 1]>, fillcolor="#399de5"] ;
586 -> 592 ;
593 [label=<gini = 0.0<br/>samples = 1<br/>value = [0, 1]>, fillcolor="#399de5"] ;
585 -> 593 ;
594 [label=<gini = 0.0<br/>samples = 20<br/>value = [20, 0]>, fillcolor="#e58139"] ;
584 -> 594 ;
595 [label=<x<SUB>4</SUB> &le; 0.5<br/>gini = 0.484<br/>samples = 17<br/>value = [10, 7]>, fillcolor="#f7d9c4"] ;
573 -> 595 ;
596 [label=<x<SUB>22</SUB> &le; 0.082<br/>gini = 0.444<br/>samples = 15<br/>value = [10, 5]>, fillcolor="#f2c09c"] ;
595 -> 596 ;
597 [label=<x<SUB>8</SUB> &le; -0.332<br/>gini = 0.375<br/>samples = 4<br/>value = [1, 3]>, fillcolor="#7bbeee"] ;
596 -> 597 ;
598 [label=<gini = 0.0<br/>samples = 1<br/>value = [1, 0]>, fillcolor="#e58139"] ;
597 -> 598 ;
599 [label=<gini = 0.0<br/>samples = 3<br/>value = [0, 3]>, fillcolor="#399de5"] ;
597 -> 599 ;
600 [label=<x<SUB>14</SUB> &le; 1.167<br/>gini = 0.298<br/>samples = 11<br/>value = [9, 2]>, fillcolor="#eb9d65"] ;
596 -> 600 ;
601 [label=<gini = 0.0<br/>samples = 7<br/>value = [7, 0]>, fillcolor="#e58139"] ;
600 -> 601 ;
602 [label=<x<SUB>1</SUB> &le; 0.524<br/>gini = 0.5<br/>samples = 4<br/>value = [2, 2]>, fillcolor="#ffffff"] ;
600 -> 602 ;
603 [label=<gini = 0.0<br/>samples = 2<br/>value = [2, 0]>, fillcolor="#e58139"] ;
602 -> 603 ;
604 [label=<gini = 0.0<br/>samples = 2<br/>value = [0, 2]>, fillcolor="#399de5"] ;
602 -> 604 ;
605 [label=<gini = 0.0<br/>samples = 2<br/>value = [0, 2]>, fillcolor="#399de5"] ;
595 -> 605 ;
606 [label=<x<SUB>15</SUB> &le; 1.5<br/>gini = 0.117<br/>samples = 64<br/>value = [60, 4]>, fillcolor="#e78946"] ;
516 -> 606 ;
607 [label=<x<SUB>14</SUB> &le; 0.167<br/>gini = 0.091<br/>samples = 63<br/>value = [60, 3]>, fillcolor="#e68743"] ;
606 -> 607 ;
608 [label=<gini = 0.0<br/>samples = 38<br/>value = [38, 0]>, fillcolor="#e58139"] ;
607 -> 608 ;
609 [label=<x<SUB>14</SUB> &le; 0.667<br/>gini = 0.211<br/>samples = 25<br/>value = [22, 3]>, fillcolor="#e99254"] ;
607 -> 609 ;
610 [label=<gini = 0.0<br/>samples = 1<br/>value = [0, 1]>, fillcolor="#399de5"] ;
609 -> 610 ;
611 [label=<x<SUB>8</SUB> &le; -0.341<br/>gini = 0.153<br/>samples = 24<br/>value = [22, 2]>, fillcolor="#e78c4b"] ;
609 -> 611 ;
612 [label=<x<SUB>14</SUB> &le; 1.167<br/>gini = 0.444<br/>samples = 3<br/>value = [2, 1]>, fillcolor="#f2c09c"] ;
611 -> 612 ;
613 [label=<gini = 0.0<br/>samples = 2<br/>value = [2, 0]>, fillcolor="#e58139"] ;
612 -> 613 ;
614 [label=<gini = 0.0<br/>samples = 1<br/>value = [0, 1]>, fillcolor="#399de5"] ;
612 -> 614 ;
615 [label=<x<SUB>2</SUB> &le; 0.25<br/>gini = 0.091<br/>samples = 21<br/>value = [20, 1]>, fillcolor="#e68743"] ;
611 -> 615 ;
616 [label=<gini = 0.0<br/>samples = 13<br/>value = [13, 0]>, fillcolor="#e58139"] ;
615 -> 616 ;
617 [label=<x<SUB>3</SUB> &le; 0.5<br/>gini = 0.219<br/>samples = 8<br/>value = [7, 1]>, fillcolor="#e99355"] ;
615 -> 617 ;
618 [label=<gini = 0.0<br/>samples = 5<br/>value = [5, 0]>, fillcolor="#e58139"] ;
617 -> 618 ;
619 [label=<x<SUB>5</SUB> &le; 1.0<br/>gini = 0.444<br/>samples = 3<br/>value = [2, 1]>, fillcolor="#f2c09c"] ;
617 -> 619 ;
620 [label=<gini = 0.0<br/>samples = 1<br/>value = [0, 1]>, fillcolor="#399de5"] ;
619 -> 620 ;
621 [label=<gini = 0.0<br/>samples = 2<br/>value = [2, 0]>, fillcolor="#e58139"] ;
619 -> 621 ;
622 [label=<gini = 0.0<br/>samples = 1<br/>value = [0, 1]>, fillcolor="#399de5"] ;
606 -> 622 ;
623 [label=<x<SUB>5</SUB> &le; 0.5<br/>gini = 0.35<br/>samples = 62<br/>value = [48, 14]>, fillcolor="#eda673"] ;
515 -> 623 ;
624 [label=<x<SUB>24</SUB> &le; 1.5<br/>gini = 0.286<br/>samples = 52<br/>value = [43, 9]>, fillcolor="#ea9b62"] ;
623 -> 624 ;
625 [label=<x<SUB>1</SUB> &le; 0.203<br/>gini = 0.393<br/>samples = 26<br/>value = [19, 7]>, fillcolor="#efaf82"] ;
624 -> 625 ;
626 [label=<x<SUB>16</SUB> &le; 0.5<br/>gini = 0.375<br/>samples = 4<br/>value = [1, 3]>, fillcolor="#7bbeee"] ;
625 -> 626 ;
627 [label=<gini = 0.0<br/>samples = 3<br/>value = [0, 3]>, fillcolor="#399de5"] ;
626 -> 627 ;
628 [label=<gini = 0.0<br/>samples = 1<br/>value = [1, 0]>, fillcolor="#e58139"] ;
626 -> 628 ;
629 [label=<x<SUB>1</SUB> &le; 1.098<br/>gini = 0.298<br/>samples = 22<br/>value = [18, 4]>, fillcolor="#eb9d65"] ;
625 -> 629 ;
630 [label=<x<SUB>22</SUB> &le; 0.382<br/>gini = 0.188<br/>samples = 19<br/>value = [17, 2]>, fillcolor="#e89050"] ;
629 -> 630 ;
631 [label=<gini = 0.0<br/>samples = 12<br/>value = [12, 0]>, fillcolor="#e58139"] ;
630 -> 631 ;
632 [label=<x<SUB>22</SUB> &le; 0.662<br/>gini = 0.408<br/>samples = 7<br/>value = [5, 2]>, fillcolor="#efb388"] ;
630 -> 632 ;
633 [label=<gini = 0.0<br/>samples = 2<br/>value = [0, 2]>, fillcolor="#399de5"] ;
632 -> 633 ;
634 [label=<gini = 0.0<br/>samples = 5<br/>value = [5, 0]>, fillcolor="#e58139"] ;
632 -> 634 ;
635 [label=<x<SUB>0</SUB> &le; -0.5<br/>gini = 0.444<br/>samples = 3<br/>value = [1, 2]>, fillcolor="#9ccef2"] ;
629 -> 635 ;
636 [label=<gini = 0.0<br/>samples = 2<br/>value = [0, 2]>, fillcolor="#399de5"] ;
635 -> 636 ;
637 [label=<gini = 0.0<br/>samples = 1<br/>value = [1, 0]>, fillcolor="#e58139"] ;
635 -> 637 ;
638 [label=<x<SUB>0</SUB> &le; -0.5<br/>gini = 0.142<br/>samples = 26<br/>value = [24, 2]>, fillcolor="#e78c49"] ;
624 -> 638 ;
639 [label=<gini = 0.0<br/>samples = 16<br/>value = [16, 0]>, fillcolor="#e58139"] ;
638 -> 639 ;
640 [label=<x<SUB>1</SUB> &le; 0.689<br/>gini = 0.32<br/>samples = 10<br/>value = [8, 2]>, fillcolor="#eca06a"] ;
638 -> 640 ;
641 [label=<gini = 0.0<br/>samples = 5<br/>value = [5, 0]>, fillcolor="#e58139"] ;
640 -> 641 ;
642 [label=<x<SUB>1</SUB> &le; 0.85<br/>gini = 0.48<br/>samples = 5<br/>value = [3, 2]>, fillcolor="#f6d5bd"] ;
640 -> 642 ;
643 [label=<x<SUB>2</SUB> &le; 0.25<br/>gini = 0.444<br/>samples = 3<br/>value = [1, 2]>, fillcolor="#9ccef2"] ;
642 -> 643 ;
644 [label=<gini = 0.0<br/>samples = 1<br/>value = [0, 1]>, fillcolor="#399de5"] ;
643 -> 644 ;
645 [label=<x<SUB>22</SUB> &le; 0.236<br/>gini = 0.5<br/>samples = 2<br/>value = [1, 1]>, fillcolor="#ffffff"] ;
643 -> 645 ;
646 [label=<gini = 0.0<br/>samples = 1<br/>value = [0, 1]>, fillcolor="#399de5"] ;
645 -> 646 ;
647 [label=<gini = 0.0<br/>samples = 1<br/>value = [1, 0]>, fillcolor="#e58139"] ;
645 -> 647 ;
648 [label=<gini = 0.0<br/>samples = 2<br/>value = [2, 0]>, fillcolor="#e58139"] ;
642 -> 648 ;
649 [label=<x<SUB>8</SUB> &le; -0.211<br/>gini = 0.5<br/>samples = 10<br/>value = [5, 5]>, fillcolor="#ffffff"] ;
623 -> 649 ;
650 [label=<x<SUB>2</SUB> &le; 0.25<br/>gini = 0.408<br/>samples = 7<br/>value = [5, 2]>, fillcolor="#efb388"] ;
649 -> 650 ;
651 [label=<gini = 0.0<br/>samples = 1<br/>value = [0, 1]>, fillcolor="#399de5"] ;
650 -> 651 ;
652 [label=<x<SUB>8</SUB> &le; -0.306<br/>gini = 0.278<br/>samples = 6<br/>value = [5, 1]>, fillcolor="#ea9a61"] ;
650 -> 652 ;
653 [label=<gini = 0.0<br/>samples = 4<br/>value = [4, 0]>, fillcolor="#e58139"] ;
652 -> 653 ;
654 [label=<x<SUB>8</SUB> &le; -0.278<br/>gini = 0.5<br/>samples = 2<br/>value = [1, 1]>, fillcolor="#ffffff"] ;
652 -> 654 ;
655 [label=<gini = 0.0<br/>samples = 1<br/>value = [0, 1]>, fillcolor="#399de5"] ;
654 -> 655 ;
656 [label=<gini = 0.0<br/>samples = 1<br/>value = [1, 0]>, fillcolor="#e58139"] ;
654 -> 656 ;
657 [label=<gini = 0.0<br/>samples = 3<br/>value = [0, 3]>, fillcolor="#399de5"] ;
649 -> 657 ;
658 [label=<gini = 0.0<br/>samples = 1<br/>value = [0, 1]>, fillcolor="#399de5"] ;
514 -> 658 ;
659 [label=<x<SUB>6</SUB> &le; 0.5<br/>gini = 0.097<br/>samples = 39<br/>value = [37, 2]>, fillcolor="#e68844"] ;
513 -> 659 ;
660 [label=<x<SUB>22</SUB> &le; 2.93<br/>gini = 0.051<br/>samples = 38<br/>value = [37, 1]>, fillcolor="#e6843e"] ;
659 -> 660 ;
661 [label=<gini = 0.0<br/>samples = 33<br/>value = [33, 0]>, fillcolor="#e58139"] ;
660 -> 661 ;
662 [label=<x<SUB>1</SUB> &le; 0.437<br/>gini = 0.32<br/>samples = 5<br/>value = [4, 1]>, fillcolor="#eca06a"] ;
660 -> 662 ;
663 [label=<gini = 0.0<br/>samples = 4<br/>value = [4, 0]>, fillcolor="#e58139"] ;
662 -> 663 ;
664 [label=<gini = 0.0<br/>samples = 1<br/>value = [0, 1]>, fillcolor="#399de5"] ;
662 -> 664 ;
665 [label=<gini = 0.0<br/>samples = 1<br/>value = [0, 1]>, fillcolor="#399de5"] ;
659 -> 665 ;
666 [label=<gini = 0.0<br/>samples = 1<br/>value = [0, 1]>, fillcolor="#399de5"] ;
512 -> 666 ;
667 [label=<gini = 0.0<br/>samples = 33<br/>value = [33, 0]>, fillcolor="#e58139"] ;
491 -> 667 ;
668 [label=<x<SUB>8</SUB> &le; -0.264<br/>gini = 0.48<br/>samples = 5<br/>value = [2, 3]>, fillcolor="#bddef6"] ;
214 -> 668 ;
669 [label=<gini = 0.0<br/>samples = 3<br/>value = [0, 3]>, fillcolor="#399de5"] ;
668 -> 669 ;
670 [label=<gini = 0.0<br/>samples = 2<br/>value = [2, 0]>, fillcolor="#e58139"] ;
668 -> 670 ;
671 [label=<gini = 0.0<br/>samples = 4<br/>value = [0, 4]>, fillcolor="#399de5"] ;
213 -> 671 ;
672 [label=<x<SUB>24</SUB> &le; 0.5<br/>gini = 0.405<br/>samples = 611<br/>value = [439, 172]>, fillcolor="#efb287"] ;
212 -> 672 ;
673 [label=<x<SUB>1</SUB> &le; 0.839<br/>gini = 0.464<br/>samples = 337<br/>value = [214, 123]>, fillcolor="#f4c9ab"] ;
672 -> 673 ;
674 [label=<x<SUB>22</SUB> &le; 1.548<br/>gini = 0.44<br/>samples = 300<br/>value = [202, 98]>, fillcolor="#f2be99"] ;
673 -> 674 ;
675 [label=<x<SUB>8</SUB> &le; 0.196<br/>gini = 0.4<br/>samples = 242<br/>value = [175, 67]>, fillcolor="#efb185"] ;
674 -> 675 ;
676 [label=<x<SUB>7</SUB> &le; 1.0<br/>gini = 0.365<br/>samples = 212<br/>value = [161, 51]>, fillcolor="#eda978"] ;
675 -> 676 ;
677 [label=<x<SUB>3</SUB> &le; -0.25<br/>gini = 0.338<br/>samples = 186<br/>value = [146, 40]>, fillcolor="#eca46f"] ;
676 -> 677 ;
678 [label=<x<SUB>1</SUB> &le; -0.266<br/>gini = 0.168<br/>samples = 54<br/>value = [49, 5]>, fillcolor="#e88e4d"] ;
677 -> 678 ;
679 [label=<x<SUB>22</SUB> &le; 0.022<br/>gini = 0.444<br/>samples = 12<br/>value = [8, 4]>, fillcolor="#f2c09c"] ;
678 -> 679 ;
680 [label=<gini = 0.0<br/>samples = 6<br/>value = [6, 0]>, fillcolor="#e58139"] ;
679 -> 680 ;
681 [label=<x<SUB>15</SUB> &le; 1.167<br/>gini = 0.444<br/>samples = 6<br/>value = [2, 4]>, fillcolor="#9ccef2"] ;
679 -> 681 ;
682 [label=<gini = 0.0<br/>samples = 4<br/>value = [0, 4]>, fillcolor="#399de5"] ;
681 -> 682 ;
683 [label=<gini = 0.0<br/>samples = 2<br/>value = [2, 0]>, fillcolor="#e58139"] ;
681 -> 683 ;
684 [label=<x<SUB>1</SUB> &le; 0.175<br/>gini = 0.046<br/>samples = 42<br/>value = [41, 1]>, fillcolor="#e6843e"] ;
678 -> 684 ;
685 [label=<gini = 0.0<br/>samples = 31<br/>value = [31, 0]>, fillcolor="#e58139"] ;
684 -> 685 ;
686 [label=<x<SUB>22</SUB> &le; 0.158<br/>gini = 0.165<br/>samples = 11<br/>value = [10, 1]>, fillcolor="#e88e4d"] ;
684 -> 686 ;
687 [label=<x<SUB>22</SUB> &le; 0.044<br/>gini = 0.444<br/>samples = 3<br/>value = [2, 1]>, fillcolor="#f2c09c"] ;
686 -> 687 ;
688 [label=<gini = 0.0<br/>samples = 2<br/>value = [2, 0]>, fillcolor="#e58139"] ;
687 -> 688 ;
689 [label=<gini = 0.0<br/>samples = 1<br/>value = [0, 1]>, fillcolor="#399de5"] ;
687 -> 689 ;
690 [label=<gini = 0.0<br/>samples = 8<br/>value = [8, 0]>, fillcolor="#e58139"] ;
686 -> 690 ;
691 [label=<x<SUB>1</SUB> &le; 0.486<br/>gini = 0.39<br/>samples = 132<br/>value = [97, 35]>, fillcolor="#eeae80"] ;
677 -> 691 ;
692 [label=<x<SUB>1</SUB> &le; 0.266<br/>gini = 0.414<br/>samples = 116<br/>value = [82, 34]>, fillcolor="#f0b58b"] ;
691 -> 692 ;
693 [label=<x<SUB>22</SUB> &le; 0.719<br/>gini = 0.37<br/>samples = 94<br/>value = [71, 23]>, fillcolor="#edaa79"] ;
692 -> 693 ;
694 [label=<x<SUB>22</SUB> &le; 0.184<br/>gini = 0.307<br/>samples = 74<br/>value = [60, 14]>, fillcolor="#eb9e67"] ;
693 -> 694 ;
695 [label=<x<SUB>8</SUB> &le; -0.075<br/>gini = 0.38<br/>samples = 47<br/>value = [35, 12]>, fillcolor="#eeac7d"] ;
694 -> 695 ;
696 [label=<x<SUB>22</SUB> &le; 0.006<br/>gini = 0.458<br/>samples = 31<br/>value = [20, 11]>, fillcolor="#f3c6a6"] ;
695 -> 696 ;
697 [label=<x<SUB>1</SUB> &le; -0.308<br/>gini = 0.393<br/>samples = 26<br/>value = [19, 7]>, fillcolor="#efaf82"] ;
696 -> 697 ;
698 [label=<gini = 0.0<br/>samples = 1<br/>value = [0, 1]>, fillcolor="#399de5"] ;
697 -> 698 ;
699 [label=<x<SUB>1</SUB> &le; -0.171<br/>gini = 0.365<br/>samples = 25<br/>value = [19, 6]>, fillcolor="#eda978"] ;
697 -> 699 ;
700 [label=<gini = 0.0<br/>samples = 9<br/>value = [9, 0]>, fillcolor="#e58139"] ;
699 -> 700 ;
701 [label=<x<SUB>1</SUB> &le; -0.115<br/>gini = 0.469<br/>samples = 16<br/>value = [10, 6]>, fillcolor="#f5cdb0"] ;
699 -> 701 ;
702 [label=<gini = 0.0<br/>samples = 4<br/>value = [0, 4]>, fillcolor="#399de5"] ;
701 -> 702 ;
703 [label=<x<SUB>2</SUB> &le; -0.25<br/>gini = 0.278<br/>samples = 12<br/>value = [10, 2]>, fillcolor="#ea9a61"] ;
701 -> 703 ;
704 [label=<x<SUB>1</SUB> &le; 0.031<br/>gini = 0.5<br/>samples = 4<br/>value = [2, 2]>, fillcolor="#ffffff"] ;
703 -> 704 ;
705 [label=<gini = 0.0<br/>samples = 2<br/>value = [2, 0]>, fillcolor="#e58139"] ;
704 -> 705 ;
706 [label=<gini = 0.0<br/>samples = 2<br/>value = [0, 2]>, fillcolor="#399de5"] ;
704 -> 706 ;
707 [label=<gini = 0.0<br/>samples = 8<br/>value = [8, 0]>, fillcolor="#e58139"] ;
703 -> 707 ;
708 [label=<x<SUB>1</SUB> &le; -0.346<br/>gini = 0.32<br/>samples = 5<br/>value = [1, 4]>, fillcolor="#6ab6ec"] ;
696 -> 708 ;
709 [label=<gini = 0.0<br/>samples = 1<br/>value = [1, 0]>, fillcolor="#e58139"] ;
708 -> 709 ;
710 [label=<gini = 0.0<br/>samples = 4<br/>value = [0, 4]>, fillcolor="#399de5"] ;
708 -> 710 ;
711 [label=<x<SUB>22</SUB> &le; 0.086<br/>gini = 0.117<br/>samples = 16<br/>value = [15, 1]>, fillcolor="#e78946"] ;
695 -> 711 ;
712 [label=<gini = 0.0<br/>samples = 13<br/>value = [13, 0]>, fillcolor="#e58139"] ;
711 -> 712 ;
713 [label=<x<SUB>2</SUB> &le; 0.25<br/>gini = 0.444<br/>samples = 3<br/>value = [2, 1]>, fillcolor="#f2c09c"] ;
711 -> 713 ;
714 [label=<gini = 0.0<br/>samples = 2<br/>value = [2, 0]>, fillcolor="#e58139"] ;
713 -> 714 ;
715 [label=<gini = 0.0<br/>samples = 1<br/>value = [0, 1]>, fillcolor="#399de5"] ;
713 -> 715 ;
716 [label=<x<SUB>5</SUB> &le; 0.5<br/>gini = 0.137<br/>samples = 27<br/>value = [25, 2]>, fillcolor="#e78b49"] ;
694 -> 716 ;
717 [label=<gini = 0.0<br/>samples = 25<br/>value = [25, 0]>, fillcolor="#e58139"] ;
716 -> 717 ;
718 [label=<gini = 0.0<br/>samples = 2<br/>value = [0, 2]>, fillcolor="#399de5"] ;
716 -> 718 ;
719 [label=<x<SUB>8</SUB> &le; 0.019<br/>gini = 0.495<br/>samples = 20<br/>value = [11, 9]>, fillcolor="#fae8db"] ;
693 -> 719 ;
720 [label=<x<SUB>16</SUB> &le; 2.5<br/>gini = 0.355<br/>samples = 13<br/>value = [10, 3]>, fillcolor="#eda774"] ;
719 -> 720 ;
721 [label=<x<SUB>22</SUB> &le; 0.853<br/>gini = 0.278<br/>samples = 12<br/>value = [10, 2]>, fillcolor="#ea9a61"] ;
720 -> 721 ;
722 [label=<gini = 0.0<br/>samples = 1<br/>value = [0, 1]>, fillcolor="#399de5"] ;
721 -> 722 ;
723 [label=<x<SUB>3</SUB> &le; 1.75<br/>gini = 0.165<br/>samples = 11<br/>value = [10, 1]>, fillcolor="#e88e4d"] ;
721 -> 723 ;
724 [label=<gini = 0.0<br/>samples = 10<br/>value = [10, 0]>, fillcolor="#e58139"] ;
723 -> 724 ;
725 [label=<gini = 0.0<br/>samples = 1<br/>value = [0, 1]>, fillcolor="#399de5"] ;
723 -> 725 ;
726 [label=<gini = 0.0<br/>samples = 1<br/>value = [0, 1]>, fillcolor="#399de5"] ;
720 -> 726 ;
727 [label=<x<SUB>3</SUB> &le; 0.75<br/>gini = 0.245<br/>samples = 7<br/>value = [1, 6]>, fillcolor="#5aade9"] ;
719 -> 727 ;
728 [label=<gini = 0.0<br/>samples = 5<br/>value = [0, 5]>, fillcolor="#399de5"] ;
727 -> 728 ;
729 [label=<x<SUB>8</SUB> &le; 0.095<br/>gini = 0.5<br/>samples = 2<br/>value = [1, 1]>, fillcolor="#ffffff"] ;
727 -> 729 ;
730 [label=<gini = 0.0<br/>samples = 1<br/>value = [0, 1]>, fillcolor="#399de5"] ;
729 -> 730 ;
731 [label=<gini = 0.0<br/>samples = 1<br/>value = [1, 0]>, fillcolor="#e58139"] ;
729 -> 731 ;
732 [label=<x<SUB>2</SUB> &le; -0.25<br/>gini = 0.5<br/>samples = 22<br/>value = [11, 11]>, fillcolor="#ffffff"] ;
692 -> 732 ;
733 [label=<x<SUB>4</SUB> &le; -0.5<br/>gini = 0.346<br/>samples = 9<br/>value = [7, 2]>, fillcolor="#eca572"] ;
732 -> 733 ;
734 [label=<gini = 0.0<br/>samples = 2<br/>value = [0, 2]>, fillcolor="#399de5"] ;
733 -> 734 ;
735 [label=<gini = 0.0<br/>samples = 7<br/>value = [7, 0]>, fillcolor="#e58139"] ;
733 -> 735 ;
736 [label=<x<SUB>16</SUB> &le; 0.5<br/>gini = 0.426<br/>samples = 13<br/>value = [4, 9]>, fillcolor="#91c9f1"] ;
732 -> 736 ;
737 [label=<x<SUB>3</SUB> &le; 0.75<br/>gini = 0.298<br/>samples = 11<br/>value = [2, 9]>, fillcolor="#65b3eb"] ;
736 -> 737 ;
738 [label=<x<SUB>2</SUB> &le; 0.25<br/>gini = 0.444<br/>samples = 6<br/>value = [2, 4]>, fillcolor="#9ccef2"] ;
737 -> 738 ;
739 [label=<gini = 0.0<br/>samples = 3<br/>value = [0, 3]>, fillcolor="#399de5"] ;
738 -> 739 ;
740 [label=<x<SUB>1</SUB> &le; 0.448<br/>gini = 0.444<br/>samples = 3<br/>value = [2, 1]>, fillcolor="#f2c09c"] ;
738 -> 740 ;
741 [label=<gini = 0.0<br/>samples = 2<br/>value = [2, 0]>, fillcolor="#e58139"] ;
740 -> 741 ;
742 [label=<gini = 0.0<br/>samples = 1<br/>value = [0, 1]>, fillcolor="#399de5"] ;
740 -> 742 ;
743 [label=<gini = 0.0<br/>samples = 5<br/>value = [0, 5]>, fillcolor="#399de5"] ;
737 -> 743 ;
744 [label=<gini = 0.0<br/>samples = 2<br/>value = [2, 0]>, fillcolor="#e58139"] ;
736 -> 744 ;
745 [label=<x<SUB>4</SUB> &le; -0.5<br/>gini = 0.117<br/>samples = 16<br/>value = [15, 1]>, fillcolor="#e78946"] ;
691 -> 745 ;
746 [label=<gini = 0.0<br/>samples = 1<br/>value = [0, 1]>, fillcolor="#399de5"] ;
745 -> 746 ;
747 [label=<gini = 0.0<br/>samples = 15<br/>value = [15, 0]>, fillcolor="#e58139"] ;
745 -> 747 ;
748 [label=<x<SUB>15</SUB> &le; 0.333<br/>gini = 0.488<br/>samples = 26<br/>value = [15, 11]>, fillcolor="#f8ddca"] ;
676 -> 748 ;
749 [label=<x<SUB>1</SUB> &le; -0.311<br/>gini = 0.469<br/>samples = 16<br/>value = [6, 10]>, fillcolor="#b0d8f5"] ;
748 -> 749 ;
750 [label=<gini = 0.0<br/>samples = 3<br/>value = [3, 0]>, fillcolor="#e58139"] ;
749 -> 750 ;
751 [label=<x<SUB>22</SUB> &le; 1.14<br/>gini = 0.355<br/>samples = 13<br/>value = [3, 10]>, fillcolor="#74baed"] ;
749 -> 751 ;
752 [label=<x<SUB>1</SUB> &le; 0.605<br/>gini = 0.278<br/>samples = 12<br/>value = [2, 10]>, fillcolor="#61b1ea"] ;
751 -> 752 ;
753 [label=<x<SUB>2</SUB> &le; -0.25<br/>gini = 0.165<br/>samples = 11<br/>value = [1, 10]>, fillcolor="#4da7e8"] ;
752 -> 753 ;
754 [label=<x<SUB>9</SUB> &le; -0.158<br/>gini = 0.5<br/>samples = 2<br/>value = [1, 1]>, fillcolor="#ffffff"] ;
753 -> 754 ;
755 [label=<gini = 0.0<br/>samples = 1<br/>value = [1, 0]>, fillcolor="#e58139"] ;
754 -> 755 ;
756 [label=<gini = 0.0<br/>samples = 1<br/>value = [0, 1]>, fillcolor="#399de5"] ;
754 -> 756 ;
757 [label=<gini = 0.0<br/>samples = 9<br/>value = [0, 9]>, fillcolor="#399de5"] ;
753 -> 757 ;
758 [label=<gini = 0.0<br/>samples = 1<br/>value = [1, 0]>, fillcolor="#e58139"] ;
752 -> 758 ;
759 [label=<gini = 0.0<br/>samples = 1<br/>value = [1, 0]>, fillcolor="#e58139"] ;
751 -> 759 ;
760 [label=<x<SUB>1</SUB> &le; 0.451<br/>gini = 0.18<br/>samples = 10<br/>value = [9, 1]>, fillcolor="#e88f4f"] ;
748 -> 760 ;
761 [label=<gini = 0.0<br/>samples = 8<br/>value = [8, 0]>, fillcolor="#e58139"] ;
760 -> 761 ;
762 [label=<x<SUB>3</SUB> &le; 0.25<br/>gini = 0.5<br/>samples = 2<br/>value = [1, 1]>, fillcolor="#ffffff"] ;
760 -> 762 ;
763 [label=<gini = 0.0<br/>samples = 1<br/>value = [0, 1]>, fillcolor="#399de5"] ;
762 -> 763 ;
764 [label=<gini = 0.0<br/>samples = 1<br/>value = [1, 0]>, fillcolor="#e58139"] ;
762 -> 764 ;
765 [label=<x<SUB>16</SUB> &le; 0.5<br/>gini = 0.498<br/>samples = 30<br/>value = [14, 16]>, fillcolor="#e6f3fc"] ;
675 -> 765 ;
766 [label=<x<SUB>22</SUB> &le; -0.035<br/>gini = 0.423<br/>samples = 23<br/>value = [7, 16]>, fillcolor="#90c8f0"] ;
765 -> 766 ;
767 [label=<x<SUB>2</SUB> &le; -0.25<br/>gini = 0.469<br/>samples = 8<br/>value = [5, 3]>, fillcolor="#f5cdb0"] ;
766 -> 767 ;
768 [label=<gini = 0.0<br/>samples = 3<br/>value = [0, 3]>, fillcolor="#399de5"] ;
767 -> 768 ;
769 [label=<gini = 0.0<br/>samples = 5<br/>value = [5, 0]>, fillcolor="#e58139"] ;
767 -> 769 ;
770 [label=<x<SUB>14</SUB> &le; 1.167<br/>gini = 0.231<br/>samples = 15<br/>value = [2, 13]>, fillcolor="#57ace9"] ;
766 -> 770 ;
771 [label=<gini = 0.0<br/>samples = 12<br/>value = [0, 12]>, fillcolor="#399de5"] ;
770 -> 771 ;
772 [label=<x<SUB>2</SUB> &le; -0.25<br/>gini = 0.444<br/>samples = 3<br/>value = [2, 1]>, fillcolor="#f2c09c"] ;
770 -> 772 ;
773 [label=<gini = 0.0<br/>samples = 1<br/>value = [0, 1]>, fillcolor="#399de5"] ;
772 -> 773 ;
774 [label=<gini = 0.0<br/>samples = 2<br/>value = [2, 0]>, fillcolor="#e58139"] ;
772 -> 774 ;
775 [label=<gini = 0.0<br/>samples = 7<br/>value = [7, 0]>, fillcolor="#e58139"] ;
765 -> 775 ;
776 [label=<x<SUB>3</SUB> &le; 2.25<br/>gini = 0.498<br/>samples = 58<br/>value = [27, 31]>, fillcolor="#e5f2fc"] ;
674 -> 776 ;
777 [label=<x<SUB>22</SUB> &le; 2.918<br/>gini = 0.5<br/>samples = 53<br/>value = [27, 26]>, fillcolor="#fefaf8"] ;
776 -> 777 ;
778 [label=<x<SUB>22</SUB> &le; 1.573<br/>gini = 0.493<br/>samples = 43<br/>value = [19, 24]>, fillcolor="#d6ebfa"] ;
777 -> 778 ;
779 [label=<gini = 0.0<br/>samples = 3<br/>value = [0, 3]>, fillcolor="#399de5"] ;
778 -> 779 ;
780 [label=<x<SUB>1</SUB> &le; 0.063<br/>gini = 0.499<br/>samples = 40<br/>value = [19, 21]>, fillcolor="#ecf6fd"] ;
778 -> 780 ;
781 [label=<x<SUB>3</SUB> &le; 0.75<br/>gini = 0.486<br/>samples = 24<br/>value = [14, 10]>, fillcolor="#f8dbc6"] ;
780 -> 781 ;
782 [label=<x<SUB>22</SUB> &le; 1.618<br/>gini = 0.499<br/>samples = 19<br/>value = [9, 10]>, fillcolor="#ebf5fc"] ;
781 -> 782 ;
783 [label=<gini = 0.0<br/>samples = 2<br/>value = [2, 0]>, fillcolor="#e58139"] ;
782 -> 783 ;
784 [label=<x<SUB>18</SUB> &le; -1.324<br/>gini = 0.484<br/>samples = 17<br/>value = [7, 10]>, fillcolor="#c4e2f7"] ;
782 -> 784 ;
785 [label=<x<SUB>14</SUB> &le; 1.833<br/>gini = 0.497<br/>samples = 13<br/>value = [7, 6]>, fillcolor="#fbede3"] ;
784 -> 785 ;
786 [label=<x<SUB>4</SUB> &le; 0.5<br/>gini = 0.444<br/>samples = 9<br/>value = [3, 6]>, fillcolor="#9ccef2"] ;
785 -> 786 ;
787 [label=<x<SUB>3</SUB> &le; 0.25<br/>gini = 0.375<br/>samples = 8<br/>value = [2, 6]>, fillcolor="#7bbeee"] ;
786 -> 787 ;
788 [label=<gini = 0.0<br/>samples = 5<br/>value = [0, 5]>, fillcolor="#399de5"] ;
787 -> 788 ;
789 [label=<x<SUB>1</SUB> &le; -0.304<br/>gini = 0.444<br/>samples = 3<br/>value = [2, 1]>, fillcolor="#f2c09c"] ;
787 -> 789 ;
790 [label=<gini = 0.0<br/>samples = 1<br/>value = [0, 1]>, fillcolor="#399de5"] ;
789 -> 790 ;
791 [label=<gini = 0.0<br/>samples = 2<br/>value = [2, 0]>, fillcolor="#e58139"] ;
789 -> 791 ;
792 [label=<gini = 0.0<br/>samples = 1<br/>value = [1, 0]>, fillcolor="#e58139"] ;
786 -> 792 ;
793 [label=<gini = 0.0<br/>samples = 4<br/>value = [4, 0]>, fillcolor="#e58139"] ;
785 -> 793 ;
794 [label=<gini = 0.0<br/>samples = 4<br/>value = [0, 4]>, fillcolor="#399de5"] ;
784 -> 794 ;
795 [label=<gini = 0.0<br/>samples = 5<br/>value = [5, 0]>, fillcolor="#e58139"] ;
781 -> 795 ;
796 [label=<x<SUB>3</SUB> &le; -0.25<br/>gini = 0.43<br/>samples = 16<br/>value = [5, 11]>, fillcolor="#93caf1"] ;
780 -> 796 ;
797 [label=<gini = 0.0<br/>samples = 2<br/>value = [2, 0]>, fillcolor="#e58139"] ;
796 -> 797 ;
798 [label=<x<SUB>3</SUB> &le; 1.75<br/>gini = 0.337<br/>samples = 14<br/>value = [3, 11]>, fillcolor="#6fb8ec"] ;
796 -> 798 ;
799 [label=<x<SUB>2</SUB> &le; -0.25<br/>gini = 0.26<br/>samples = 13<br/>value = [2, 11]>, fillcolor="#5dafea"] ;
798 -> 799 ;
800 [label=<x<SUB>15</SUB> &le; 1.333<br/>gini = 0.444<br/>samples = 6<br/>value = [2, 4]>, fillcolor="#9ccef2"] ;
799 -> 800 ;
801 [label=<x<SUB>1</SUB> &le; 0.245<br/>gini = 0.444<br/>samples = 3<br/>value = [2, 1]>, fillcolor="#f2c09c"] ;
800 -> 801 ;
802 [label=<gini = 0.0<br/>samples = 1<br/>value = [0, 1]>, fillcolor="#399de5"] ;
801 -> 802 ;
803 [label=<gini = 0.0<br/>samples = 2<br/>value = [2, 0]>, fillcolor="#e58139"] ;
801 -> 803 ;
804 [label=<gini = 0.0<br/>samples = 3<br/>value = [0, 3]>, fillcolor="#399de5"] ;
800 -> 804 ;
805 [label=<gini = 0.0<br/>samples = 7<br/>value = [0, 7]>, fillcolor="#399de5"] ;
799 -> 805 ;
806 [label=<gini = 0.0<br/>samples = 1<br/>value = [1, 0]>, fillcolor="#e58139"] ;
798 -> 806 ;
807 [label=<x<SUB>3</SUB> &le; -0.75<br/>gini = 0.32<br/>samples = 10<br/>value = [8, 2]>, fillcolor="#eca06a"] ;
777 -> 807 ;
808 [label=<gini = 0.0<br/>samples = 1<br/>value = [0, 1]>, fillcolor="#399de5"] ;
807 -> 808 ;
809 [label=<x<SUB>5</SUB> &le; 0.5<br/>gini = 0.198<br/>samples = 9<br/>value = [8, 1]>, fillcolor="#e89152"] ;
807 -> 809 ;
810 [label=<x<SUB>14</SUB> &le; 1.5<br/>gini = 0.444<br/>samples = 3<br/>value = [2, 1]>, fillcolor="#f2c09c"] ;
809 -> 810 ;
811 [label=<gini = 0.0<br/>samples = 2<br/>value = [2, 0]>, fillcolor="#e58139"] ;
810 -> 811 ;
812 [label=<gini = 0.0<br/>samples = 1<br/>value = [0, 1]>, fillcolor="#399de5"] ;
810 -> 812 ;
813 [label=<gini = 0.0<br/>samples = 6<br/>value = [6, 0]>, fillcolor="#e58139"] ;
809 -> 813 ;
814 [label=<gini = 0.0<br/>samples = 5<br/>value = [0, 5]>, fillcolor="#399de5"] ;
776 -> 814 ;
815 [label=<x<SUB>2</SUB> &le; 1.25<br/>gini = 0.438<br/>samples = 37<br/>value = [12, 25]>, fillcolor="#98ccf1"] ;
673 -> 815 ;
816 [label=<x<SUB>8</SUB> &le; -0.04<br/>gini = 0.408<br/>samples = 35<br/>value = [10, 25]>, fillcolor="#88c4ef"] ;
815 -> 816 ;
817 [label=<x<SUB>8</SUB> &le; -0.097<br/>gini = 0.466<br/>samples = 27<br/>value = [10, 17]>, fillcolor="#add7f4"] ;
816 -> 817 ;
818 [label=<x<SUB>1</SUB> &le; 1.08<br/>gini = 0.413<br/>samples = 24<br/>value = [7, 17]>, fillcolor="#8bc5f0"] ;
817 -> 818 ;
819 [label=<gini = 0.0<br/>samples = 8<br/>value = [0, 8]>, fillcolor="#399de5"] ;
818 -> 819 ;
820 [label=<x<SUB>14</SUB> &le; 0.167<br/>gini = 0.492<br/>samples = 16<br/>value = [7, 9]>, fillcolor="#d3e9f9"] ;
818 -> 820 ;
821 [label=<x<SUB>3</SUB> &le; -0.75<br/>gini = 0.346<br/>samples = 9<br/>value = [2, 7]>, fillcolor="#72b9ec"] ;
820 -> 821 ;
822 [label=<gini = 0.0<br/>samples = 1<br/>value = [1, 0]>, fillcolor="#e58139"] ;
821 -> 822 ;
823 [label=<x<SUB>7</SUB> &le; 1.0<br/>gini = 0.219<br/>samples = 8<br/>value = [1, 7]>, fillcolor="#55abe9"] ;
821 -> 823 ;
824 [label=<gini = 0.0<br/>samples = 7<br/>value = [0, 7]>, fillcolor="#399de5"] ;
823 -> 824 ;
825 [label=<gini = 0.0<br/>samples = 1<br/>value = [1, 0]>, fillcolor="#e58139"] ;
823 -> 825 ;
826 [label=<x<SUB>22</SUB> &le; 1.488<br/>gini = 0.408<br/>samples = 7<br/>value = [5, 2]>, fillcolor="#efb388"] ;
820 -> 826 ;
827 [label=<gini = 0.0<br/>samples = 4<br/>value = [4, 0]>, fillcolor="#e58139"] ;
826 -> 827 ;
828 [label=<x<SUB>16</SUB> &le; 0.5<br/>gini = 0.444<br/>samples = 3<br/>value = [1, 2]>, fillcolor="#9ccef2"] ;
826 -> 828 ;
829 [label=<gini = 0.0<br/>samples = 2<br/>value = [0, 2]>, fillcolor="#399de5"] ;
828 -> 829 ;
830 [label=<gini = 0.0<br/>samples = 1<br/>value = [1, 0]>, fillcolor="#e58139"] ;
828 -> 830 ;
831 [label=<gini = 0.0<br/>samples = 3<br/>value = [3, 0]>, fillcolor="#e58139"] ;
817 -> 831 ;
832 [label=<gini = 0.0<br/>samples = 8<br/>value = [0, 8]>, fillcolor="#399de5"] ;
816 -> 832 ;
833 [label=<gini = 0.0<br/>samples = 2<br/>value = [2, 0]>, fillcolor="#e58139"] ;
815 -> 833 ;
834 [label=<x<SUB>7</SUB> &le; 2.5<br/>gini = 0.294<br/>samples = 274<br/>value = [225, 49]>, fillcolor="#eb9c64"] ;
672 -> 834 ;
835 [label=<x<SUB>8</SUB> &le; 0.281<br/>gini = 0.269<br/>samples = 262<br/>value = [220, 42]>, fillcolor="#ea995f"] ;
834 -> 835 ;
836 [label=<x<SUB>9</SUB> &le; -0.158<br/>gini = 0.245<br/>samples = 252<br/>value = [216, 36]>, fillcolor="#e9965a"] ;
835 -> 836 ;
837 [label=<x<SUB>1</SUB> &le; 0.993<br/>gini = 0.222<br/>samples = 244<br/>value = [213, 31]>, fillcolor="#e99356"] ;
836 -> 837 ;
838 [label=<x<SUB>3</SUB> &le; 3.25<br/>gini = 0.198<br/>samples = 234<br/>value = [208, 26]>, fillcolor="#e89152"] ;
837 -> 838 ;
839 [label=<x<SUB>8</SUB> &le; -0.108<br/>gini = 0.192<br/>samples = 233<br/>value = [208, 25]>, fillcolor="#e89051"] ;
838 -> 839 ;
840 [label=<x<SUB>22</SUB> &le; -0.699<br/>gini = 0.249<br/>samples = 165<br/>value = [141, 24]>, fillcolor="#e9965b"] ;
839 -> 840 ;
841 [label=<x<SUB>15</SUB> &le; 0.5<br/>gini = 0.5<br/>samples = 6<br/>value = [3, 3]>, fillcolor="#ffffff"] ;
840 -> 841 ;
842 [label=<gini = 0.0<br/>samples = 2<br/>value = [0, 2]>, fillcolor="#399de5"] ;
841 -> 842 ;
843 [label=<x<SUB>24</SUB> &le; 1.5<br/>gini = 0.375<br/>samples = 4<br/>value = [3, 1]>, fillcolor="#eeab7b"] ;
841 -> 843 ;
844 [label=<gini = 0.0<br/>samples = 1<br/>value = [0, 1]>, fillcolor="#399de5"] ;
843 -> 844 ;
845 [label=<gini = 0.0<br/>samples = 3<br/>value = [3, 0]>, fillcolor="#e58139"] ;
843 -> 845 ;
846 [label=<x<SUB>14</SUB> &le; 0.5<br/>gini = 0.229<br/>samples = 159<br/>value = [138, 21]>, fillcolor="#e99457"] ;
840 -> 846 ;
847 [label=<x<SUB>16</SUB> &le; 1.5<br/>gini = 0.088<br/>samples = 65<br/>value = [62, 3]>, fillcolor="#e68743"] ;
846 -> 847 ;
848 [label=<gini = 0.0<br/>samples = 60<br/>value = [60, 0]>, fillcolor="#e58139"] ;
847 -> 848 ;
849 [label=<x<SUB>3</SUB> &le; 0.25<br/>gini = 0.48<br/>samples = 5<br/>value = [2, 3]>, fillcolor="#bddef6"] ;
847 -> 849 ;
850 [label=<gini = 0.0<br/>samples = 3<br/>value = [0, 3]>, fillcolor="#399de5"] ;
849 -> 850 ;
851 [label=<gini = 0.0<br/>samples = 2<br/>value = [2, 0]>, fillcolor="#e58139"] ;
849 -> 851 ;
852 [label=<x<SUB>7</SUB> &le; 1.0<br/>gini = 0.31<br/>samples = 94<br/>value = [76, 18]>, fillcolor="#eb9f68"] ;
846 -> 852 ;
853 [label=<x<SUB>22</SUB> &le; -0.158<br/>gini = 0.382<br/>samples = 70<br/>value = [52, 18]>, fillcolor="#eead7e"] ;
852 -> 853 ;
854 [label=<gini = 0.0<br/>samples = 12<br/>value = [12, 0]>, fillcolor="#e58139"] ;
853 -> 854 ;
855 [label=<x<SUB>1</SUB> &le; -0.245<br/>gini = 0.428<br/>samples = 58<br/>value = [40, 18]>, fillcolor="#f1ba92"] ;
853 -> 855 ;
856 [label=<x<SUB>22</SUB> &le; 0.939<br/>gini = 0.463<br/>samples = 11<br/>value = [4, 7]>, fillcolor="#aad5f4"] ;
855 -> 856 ;
857 [label=<gini = 0.0<br/>samples = 6<br/>value = [0, 6]>, fillcolor="#399de5"] ;
856 -> 857 ;
858 [label=<x<SUB>1</SUB> &le; -0.262<br/>gini = 0.32<br/>samples = 5<br/>value = [4, 1]>, fillcolor="#eca06a"] ;
856 -> 858 ;
859 [label=<gini = 0.0<br/>samples = 4<br/>value = [4, 0]>, fillcolor="#e58139"] ;
858 -> 859 ;
860 [label=<gini = 0.0<br/>samples = 1<br/>value = [0, 1]>, fillcolor="#399de5"] ;
858 -> 860 ;
861 [label=<x<SUB>2</SUB> &le; 0.25<br/>gini = 0.359<br/>samples = 47<br/>value = [36, 11]>, fillcolor="#eda876"] ;
855 -> 861 ;
862 [label=<x<SUB>1</SUB> &le; 0.423<br/>gini = 0.159<br/>samples = 23<br/>value = [21, 2]>, fillcolor="#e78d4c"] ;
861 -> 862 ;
863 [label=<gini = 0.0<br/>samples = 15<br/>value = [15, 0]>, fillcolor="#e58139"] ;
862 -> 863 ;
864 [label=<x<SUB>15</SUB> &le; 0.833<br/>gini = 0.375<br/>samples = 8<br/>value = [6, 2]>, fillcolor="#eeab7b"] ;
862 -> 864 ;
865 [label=<gini = 0.0<br/>samples = 1<br/>value = [0, 1]>, fillcolor="#399de5"] ;
864 -> 865 ;
866 [label=<x<SUB>16</SUB> &le; 0.5<br/>gini = 0.245<br/>samples = 7<br/>value = [6, 1]>, fillcolor="#e9965a"] ;
864 -> 866 ;
867 [label=<x<SUB>1</SUB> &le; 0.483<br/>gini = 0.375<br/>samples = 4<br/>value = [3, 1]>, fillcolor="#eeab7b"] ;
866 -> 867 ;
868 [label=<gini = 0.0<br/>samples = 1<br/>value = [1, 0]>, fillcolor="#e58139"] ;
867 -> 868 ;
869 [label=<x<SUB>3</SUB> &le; -0.25<br/>gini = 0.444<br/>samples = 3<br/>value = [2, 1]>, fillcolor="#f2c09c"] ;
867 -> 869 ;
870 [label=<gini = 0.0<br/>samples = 1<br/>value = [1, 0]>, fillcolor="#e58139"] ;
869 -> 870 ;
871 [label=<gini = 0.5<br/>samples = 2<br/>value = [1, 1]>, fillcolor="#ffffff"] ;
869 -> 871 ;
872 [label=<gini = 0.0<br/>samples = 3<br/>value = [3, 0]>, fillcolor="#e58139"] ;
866 -> 872 ;
873 [label=<x<SUB>8</SUB> &le; -0.144<br/>gini = 0.469<br/>samples = 24<br/>value = [15, 9]>, fillcolor="#f5cdb0"] ;
861 -> 873 ;
874 [label=<x<SUB>22</SUB> &le; 2.825<br/>gini = 0.18<br/>samples = 10<br/>value = [9, 1]>, fillcolor="#e88f4f"] ;
873 -> 874 ;
875 [label=<gini = 0.0<br/>samples = 8<br/>value = [8, 0]>, fillcolor="#e58139"] ;
874 -> 875 ;
876 [label=<x<SUB>15</SUB> &le; 1.5<br/>gini = 0.5<br/>samples = 2<br/>value = [1, 1]>, fillcolor="#ffffff"] ;
874 -> 876 ;
877 [label=<gini = 0.0<br/>samples = 1<br/>value = [0, 1]>, fillcolor="#399de5"] ;
876 -> 877 ;
878 [label=<gini = 0.0<br/>samples = 1<br/>value = [1, 0]>, fillcolor="#e58139"] ;
876 -> 878 ;
879 [label=<x<SUB>1</SUB> &le; 0.808<br/>gini = 0.49<br/>samples = 14<br/>value = [6, 8]>, fillcolor="#cee6f8"] ;
873 -> 879 ;
880 [label=<x<SUB>3</SUB> &le; 1.25<br/>gini = 0.444<br/>samples = 12<br/>value = [4, 8]>, fillcolor="#9ccef2"] ;
879 -> 880 ;
881 [label=<x<SUB>18</SUB> &le; -1.324<br/>gini = 0.5<br/>samples = 8<br/>value = [4, 4]>, fillcolor="#ffffff"] ;
880 -> 881 ;
882 [label=<x<SUB>1</SUB> &le; 0.346<br/>gini = 0.32<br/>samples = 5<br/>value = [1, 4]>, fillcolor="#6ab6ec"] ;
881 -> 882 ;
883 [label=<gini = 0.0<br/>samples = 4<br/>value = [0, 4]>, fillcolor="#399de5"] ;
882 -> 883 ;
884 [label=<gini = 0.0<br/>samples = 1<br/>value = [1, 0]>, fillcolor="#e58139"] ;
882 -> 884 ;
885 [label=<gini = 0.0<br/>samples = 3<br/>value = [3, 0]>, fillcolor="#e58139"] ;
881 -> 885 ;
886 [label=<gini = 0.0<br/>samples = 4<br/>value = [0, 4]>, fillcolor="#399de5"] ;
880 -> 886 ;
887 [label=<gini = 0.0<br/>samples = 2<br/>value = [2, 0]>, fillcolor="#e58139"] ;
879 -> 887 ;
888 [label=<gini = 0.0<br/>samples = 24<br/>value = [24, 0]>, fillcolor="#e58139"] ;
